<?xml version="1.0"?>
<opencv_storage>
<opencv_ml_svm>
  <format>3</format>
  <svmType>C_SVC</svmType>
  <kernel>
    <type>LINEAR</type></kernel>
  <C>1.0000000000000001e-01</C>
  <term_criteria><epsilon>1.0000000000000000e-03</epsilon>
    <iterations>1000</iterations></term_criteria>
  <var_count>1200</var_count>
  <class_count>7</class_count>
  <class_labels type_id="opencv-matrix">
    <rows>7</rows>
    <cols>1</cols>
    <dt>i</dt>
    <data>
      0 1 2 3 4 5 6</data></class_labels>
  <sv_total>21</sv_total>
  <support_vectors>
    <_>
      4.02085016e-06 -7.85864995e-06 3.88966509e-05 1.56220412e-05
      -5.15417833e-06 4.16011244e-05 1.88034865e-05 5.00127044e-06
      4.62857315e-05 3.03650031e-05 2.43317481e-05 5.63440844e-05
      1.59974443e-05 1.74461147e-05 4.39876130e-05 1.14408786e-05
      8.30203408e-06 3.19491191e-05 4.08384367e-05 2.53740654e-05
      4.88621590e-05 1.49006337e-05 -4.05444007e-06 3.17591803e-05
      3.20697582e-05 2.33629798e-05 5.25118558e-05 7.35681078e-06
      1.58501061e-05 3.24525681e-05 -3.92823222e-06 1.27051771e-05
      4.72939428e-05 -2.16362278e-05 -5.31207706e-06 1.34295124e-05
      1.02790154e-05 2.16976696e-05 2.93385874e-05 2.55256527e-05
      3.21978005e-05 5.56858977e-05 4.43291392e-05 5.57477942e-05
      8.23467126e-05 3.00586744e-05 4.84558077e-05 5.28872588e-05
      1.31382294e-05 2.44597904e-05 4.43320678e-05 1.18485514e-05
      3.41117920e-05 6.69368383e-05 2.86719005e-05 4.26669831e-05
      6.74447583e-05 1.32620244e-05 2.45216870e-05 5.20348804e-05
      2.60954730e-05 3.33300377e-05 6.57487253e-05 9.02344073e-06
      1.66024620e-05 5.86422066e-05 2.82655492e-05 2.90208318e-05
      6.06532922e-05 4.24431673e-05 3.35464501e-05 6.51789087e-05
      3.01837881e-05 2.87380462e-05 4.80449780e-05 3.13499004e-05
      2.71952104e-05 4.60957926e-05 1.27948679e-05 1.26123323e-05
      3.59414371e-05 -7.12044057e-05 -7.36541188e-05 -3.78095465e-05
      -7.91193888e-05 -7.95270607e-05 -5.03781848e-05 -4.07632142e-05
      -3.57000463e-05 -6.55117128e-06 3.47419555e-05 4.52450149e-05
      7.26301660e-05 -5.85905291e-05 -4.37782655e-05 -2.71758036e-05
      -8.30487115e-05 -7.12898473e-05 -5.58180764e-05 -3.52638381e-05
      -2.38539087e-05 2.71853764e-06 7.86289820e-06 2.19198791e-05
      4.39622308e-05 1.37741954e-05 2.67888590e-05 3.64437874e-05
      2.32672064e-05 3.15353645e-05 5.14076419e-05 2.72584293e-05
      3.82620055e-05 6.59341895e-05 3.33565113e-05 4.17217598e-05
      5.81342829e-05 1.64434696e-05 2.22013441e-05 4.15701725e-05
      3.37673373e-05 2.13489675e-05 5.86731549e-05 1.92717362e-05
      2.19452595e-05 6.39850041e-05 3.11599615e-05 2.68507556e-05
      6.79762234e-05 3.04930472e-05 3.65998530e-05 5.86422066e-05
      3.93357368e-06 1.24578164e-05 3.43411775e-05 -5.35329309e-05
      -4.45713849e-05 -2.81588655e-05 -7.94947919e-05 -8.01542992e-05
      -5.88053335e-05 -7.75455992e-05 -7.31493492e-05 -4.65769008e-05
      -3.80852143e-05 -4.29920328e-05 -1.85896624e-05 9.25420536e-05
      9.99298136e-05 1.18543365e-04 2.32819788e-04 2.40295907e-04
      2.42588227e-04 8.52015000e-05 8.82226377e-05 9.18017104e-05
      -7.70170009e-05 -5.98447223e-05 -5.45019248e-05 -7.37456430e-05
      -5.90614181e-05 -2.98815958e-05 -4.15828072e-05 -1.95756529e-05
      2.49764912e-06 5.63092453e-06 1.44070054e-05 2.86185004e-05
      8.77160437e-06 2.62235153e-05 4.80759263e-05 2.54063343e-05
      3.36744924e-05 6.10286952e-05 4.15627692e-05 4.18807540e-05
      5.28224336e-05 1.97751815e-05 2.48396700e-05 2.48748674e-05
      2.45261635e-05 1.94786753e-06 5.59686814e-05 1.66953068e-05
      1.22932561e-05 6.34196622e-05 1.06855950e-05 2.10000362e-05
      5.75689410e-05 2.05317865e-05 3.05282447e-05 6.25405810e-05
      -5.56101622e-05 -2.65893286e-05 -7.41043868e-06 -9.45602151e-05
      -7.51604312e-05 -4.40314216e-05 -9.78919270e-05 -7.90971608e-05
      -6.16997422e-05 -5.49347387e-05 -9.44403655e-05 -4.83035838e-05
      -9.80706773e-07 -8.52760204e-05 -7.33774232e-06 8.83238099e-05
      -2.13704370e-05 6.10625139e-05 1.60389958e-04 7.22668847e-05
      1.62495271e-04 4.88472278e-06 -8.61901790e-05 -7.87649606e-06
      -1.59593837e-04 -2.13191641e-04 -1.36074799e-04 -1.12109221e-04
      -9.80387413e-05 -6.64240288e-05 -1.02233171e-04 -7.22980622e-05
      -4.13899397e-05 -4.31089902e-05 -2.88620686e-05 -1.81412761e-05
      1.45604272e-05 2.40534391e-05 4.53405082e-05 7.10945005e-06
      1.93378819e-05 4.39566647e-05 2.83891150e-05 3.42398343e-05
      4.79169357e-05 1.64125213e-05 3.24805878e-05 3.78895311e-05
      -5.09243307e-07 6.66342476e-06 6.11921641e-05 1.15998700e-05
      2.19143094e-05 5.37676569e-05 2.84819616e-05 2.46497311e-05
      7.57451853e-05 2.54548036e-06 2.09690861e-05 5.44271679e-05
      -6.46336048e-05 -4.22775156e-05 -2.58340460e-05 -1.16029820e-04
      -8.91171658e-05 -6.05645837e-05 -2.02103445e-04 -2.51371152e-04
      -1.72924934e-04 1.90774881e-05 -6.35747419e-05 -7.13701502e-06
      2.05279561e-04 8.83197936e-05 1.48744264e-04 2.69480981e-04
      1.82984630e-04 2.48093711e-04 2.23421754e-04 1.61863733e-04
      2.17130859e-04 -1.87975809e-06 -9.75995936e-05 -1.00447387e-05
      -1.75093403e-04 -2.41334725e-04 -1.49625179e-04 -2.80795706e-04
      -3.44391272e-04 -2.25264317e-04 -1.62638797e-04 -1.67938473e-04
      -1.21134777e-04 -6.67177228e-05 -5.80035412e-05 -4.25671897e-05
      1.04911787e-05 1.53966757e-05 4.15892428e-05 2.03021737e-05
      1.39554104e-05 5.84522641e-05 2.09690861e-05 2.25812237e-05
      4.82658688e-05 5.46951969e-06 1.05030595e-05 2.28637819e-05
      -3.49403381e-05 9.57735082e-08 6.28233684e-05 -1.06337438e-05
      3.95895313e-06 3.50570153e-05 2.60335746e-05 2.14460615e-05
      4.78285656e-05 7.53934683e-06 1.26390323e-05 3.62861174e-05
      -4.61480995e-05 -3.20911167e-05 -1.83830689e-05 -4.13984380e-05
      -3.73114417e-05 -1.84108612e-05 -1.35143186e-04 -1.99617847e-04
      -1.05362815e-04 1.64612007e-04 7.70939514e-05 1.36158123e-04
      3.12475982e-04 2.50617188e-04 2.73270125e-04 4.16493393e-04
      3.71839153e-04 3.72346840e-04 3.89193650e-04 3.56352772e-04
      3.70259251e-04 6.87614956e-05 -1.90687460e-05 6.66075430e-05
      -1.59274015e-04 -2.59597495e-04 -1.81875628e-04 -2.27731987e-04
      -3.00758693e-04 -1.84367134e-04 -2.69083917e-04 -3.14406148e-04
      -1.95438173e-04 -3.23424283e-05 -3.83886581e-05 -2.65549261e-05
      3.42014828e-05 2.75057901e-05 4.62473799e-05 1.11580930e-05
      1.86400193e-05 5.79443440e-05 6.66342476e-06 1.71987540e-05
      4.82968171e-05 -1.17305544e-05 1.26731366e-05 5.35821928e-05
      -3.15906509e-05 7.66181984e-06 1.29801425e-04 -2.61055175e-05
      -7.99116879e-06 5.06877805e-05 1.45252297e-05 2.48706183e-05
      4.02495461e-05 1.71294523e-05 1.83307602e-05 4.19778480e-05
      -2.82785635e-07 1.84897526e-05 2.66960124e-05 9.45223348e-07
      2.00931645e-05 3.51541094e-05 6.27189229e-06 7.26581175e-06
      3.58932666e-05 1.81656578e-04 1.85681682e-04 1.73510663e-04
      2.00071518e-04 1.70982996e-04 1.69824285e-04 3.07646464e-04
      2.86419730e-04 2.98175437e-04 4.32200555e-04 3.99743818e-04
      3.94024071e-04 2.23946219e-04 2.06366269e-04 2.19473543e-04
      -1.48919906e-04 -2.57352542e-04 -1.33766109e-04 -2.72721954e-04
      -3.42442101e-04 -2.20619375e-04 -2.51721678e-04 -3.05060268e-04
      -1.93485830e-04 -9.58705496e-05 -1.27455627e-04 -7.82567222e-05
      -1.73277601e-06 9.39884467e-06 1.42424442e-05 1.57810318e-05
      1.90508472e-05 3.71651950e-05 1.32620244e-05 1.84545552e-05
      4.47751627e-05 -2.22127110e-05 3.16282094e-05 6.30188733e-05
      -8.61794542e-05 -1.19953647e-05 1.32978399e-04 -2.23703810e-05
      8.73640693e-06 5.75734157e-05 -3.77905849e-06 1.84855035e-05
      3.91453323e-05 -1.60471627e-05 7.32161379e-06 3.99625133e-05
      -8.67583094e-06 1.73886929e-05 2.01241128e-05 -3.04059977e-05
      6.19385446e-06 2.57848933e-05 -1.75490059e-05 -7.80122900e-06
      2.10309845e-05 1.60680665e-05 2.27314904e-05 3.95561619e-05
      3.87686086e-05 2.49663917e-05 4.72000065e-05 2.14452230e-04
      2.12657556e-04 2.01122501e-04 3.91800742e-04 3.47552850e-04
      3.48590693e-04 2.18321948e-04 1.86842692e-04 2.12377068e-04
      -1.41455952e-04 -2.24756106e-04 -1.34624584e-04 -2.39713059e-04
      -3.04527697e-04 -1.96215682e-04 -2.64167844e-04 -3.35620774e-04
      -2.08826415e-04 -7.78929680e-05 -1.02181592e-04 -5.85463604e-05
      1.52421608e-05 1.88918566e-05 1.40834536e-05 2.98725718e-06
      9.55783617e-06 4.16333933e-05 2.04071330e-06 1.95587691e-05
      4.00596073e-05 -7.34684800e-05 9.30175065e-06 5.31769329e-05
      -1.14211936e-04 1.04768851e-05 1.86868012e-04 -6.82127284e-05
      -2.77057752e-05 5.36131411e-05 -1.92696439e-06 1.77611691e-05
      5.18507368e-05 -5.04226455e-06 1.81675205e-05 4.60619158e-05
      -1.41776200e-05 9.55783617e-06 1.73267963e-05 -1.80759962e-05
      -9.08191396e-07 1.81175037e-05 -5.24995176e-06 6.72532178e-06
      4.62586695e-06 -1.15128214e-05 7.82506049e-06 -5.21607535e-06
      9.30175065e-06 1.78569426e-05 1.75476853e-05 1.93134198e-04
      1.98294467e-04 1.88580569e-04 3.46557121e-04 3.07183771e-04
      3.01715860e-04 1.90879160e-04 1.44121208e-04 1.71666674e-04
      -1.38487987e-04 -2.41565955e-04 -1.37756011e-04 -2.41251415e-04
      -3.22263484e-04 -2.13225823e-04 -2.21384471e-04 -3.01632535e-04
      -1.82289165e-04 -3.02231638e-05 -4.32243287e-05 5.03744445e-07
      5.84199552e-06 2.81639786e-05 2.35455154e-05 -2.52325640e-06
      3.79996163e-06 3.15353645e-05 -5.16290311e-06 1.71326083e-05
      4.10048306e-05 -1.03962848e-04 -1.86213947e-06 7.22322584e-05
      -1.43300233e-04 -8.28824886e-06 2.12499712e-04 -4.37558665e-05
      -8.49461503e-06 7.47160666e-05 -5.04226455e-06 1.80394782e-05
      5.36409352e-05 5.97003827e-06 1.35800065e-05 4.42407691e-05
      1.28247239e-05 2.87999446e-05 2.88970386e-05 8.36100389e-06
      1.23551536e-05 3.37363890e-05 1.76331268e-05 -5.09243307e-07
      1.70397616e-05 1.31339812e-05 1.45826507e-05 1.67217786e-05
      1.81982477e-06 2.25724998e-05 2.74470476e-05 1.60057098e-04
      1.64930330e-04 1.55406364e-04 3.21448955e-04 2.75600789e-04
      2.62302026e-04 1.40067950e-05 -7.28517480e-05 1.67377384e-05
      -1.59643852e-04 -2.62636604e-04 -1.59303643e-04 -2.16186381e-04
      -3.05369525e-04 -1.99363029e-04 -1.46747523e-04 -2.01043193e-04
      -1.12220660e-04 4.76740888e-06 -6.76959360e-07 2.25018775e-05
      -1.67087887e-06 1.30720846e-05 2.35764637e-05 -1.13493534e-05
      1.38979894e-05 4.65388875e-05 -3.76757598e-05 1.15689218e-05
      3.97458716e-05 -8.04821539e-05 -4.50046537e-06 9.08823204e-05
      -1.35410635e-04 -1.12136086e-05 1.98606198e-04 -3.42054336e-05
      3.41135706e-06 7.26666331e-05 -8.12661619e-06 2.07439498e-05
      4.26683073e-05 -5.04226455e-06 5.62110699e-06 3.56855780e-05
      1.30146636e-05 2.15079581e-05 3.63215440e-05 8.51999448e-06
      1.39289377e-05 2.91488759e-05 8.29910641e-06 -3.33303296e-06
      1.27702306e-05 3.54387612e-06 1.50184212e-06 3.14647405e-05
      -2.68200347e-05 -2.85792830e-05 -9.55066025e-06 4.53147732e-05
      -4.89222771e-07 5.15673673e-05 1.30325192e-04 2.46308900e-05
      8.65188485e-05 3.12791090e-05 -7.70077459e-05 -4.81861753e-06
      -1.15667899e-04 -2.39223387e-04 -1.57859235e-04 -1.40992808e-04
      -2.28893667e-04 -1.45829006e-04 -7.30943520e-06 -8.96124584e-06
      1.37567458e-05 -5.38379163e-06 -5.09243307e-07 2.94536567e-05
      5.87567342e-07 1.10609990e-05 3.12173797e-05 -2.07723087e-06
      1.14099303e-05 5.43387978e-05 -2.94372294e-05 -4.46819604e-06
      2.68240565e-05 -7.15426067e-05 -1.48061808e-05 4.53899993e-05
      -1.00660232e-04 3.40578777e-06 1.54580513e-04 -1.53432047e-05
      -3.88062881e-06 7.66565354e-05 6.71791759e-06 3.01750642e-05
      3.28573115e-05 1.29130931e-05 1.79466333e-05 3.33255593e-05
      9.18243222e-06 1.95278208e-05 2.94359088e-05 2.10045109e-05
      2.36780343e-05 3.20432882e-05 3.64544644e-06 3.58354941e-06
      2.01550611e-05 -2.77255858e-05 -4.30971086e-05 -8.41865221e-06
      -2.14888278e-04 -2.97734980e-04 -2.05100820e-04 -7.21632459e-05
      -1.59967007e-04 -5.68462128e-05 1.66524784e-04 2.29438829e-05
      1.17857096e-04 6.66424530e-05 -6.42094965e-05 3.45050030e-05
      -2.14809006e-05 -1.05702951e-04 -6.36047698e-05 9.23112839e-06
      -9.79749439e-06 1.15292478e-05 1.98296748e-05 2.88568685e-06
      3.36038720e-05 8.86445014e-06 -5.98008364e-06 1.50286769e-05
      7.25231257e-06 6.15550198e-06 4.57439310e-05 -5.68857331e-06
      2.22941908e-05 5.49350880e-05 -2.10984508e-05 3.92800439e-06
      1.72648979e-05 -1.06243511e-04 6.57373448e-06 1.36393155e-05
      -6.39532445e-05 7.85176053e-06 1.17883341e-04 -8.13534098e-06
      4.23726215e-06 6.36714976e-05 -6.86340991e-06 1.06546468e-05
      4.63489487e-05 8.00759608e-06 1.31030329e-05 3.87699292e-05
      1.24757926e-05 8.83350094e-06 2.70097462e-05 -5.03353976e-06
      1.11935178e-05 7.01235558e-06 -1.12859285e-04 -1.38952921e-04
      -9.24171836e-05 -2.52911646e-04 -3.14906967e-04 -2.19691894e-04
      -2.52901285e-04 -3.16248217e-04 -2.03852134e-04 -3.70461639e-05
      -1.39694472e-04 -2.89901709e-05 2.01078350e-04 8.24194067e-05
      1.54091889e-04 2.63258495e-04 2.13675215e-04 2.05908887e-04
      9.79629549e-05 6.13940501e-05 6.74625044e-05 9.39011989e-06
      -1.11416657e-05 4.07827110e-06 1.44442117e-06 -1.59765405e-05
      1.68807710e-05 -1.09430011e-05 6.15997806e-06 1.23242053e-05
      7.19489162e-06 8.83350094e-06 3.86109386e-05 -1.19390484e-06
      1.73577446e-05 4.49341569e-05 -1.19588467e-05 1.87328642e-05
      2.41505331e-05 -2.95237642e-05 2.83922709e-05 -1.69793602e-05
      -1.05231502e-05 -3.74810975e-06 5.94649537e-05 1.05581660e-06
      -3.99994678e-06 5.30742691e-05 1.29440414e-05 3.50496121e-05
      5.58110114e-05 -7.90147897e-06 1.77566926e-05 3.78556542e-05
      -3.49517995e-06 1.34871607e-05 2.87070980e-05 -9.39705860e-05
      -9.19872909e-05 -4.71533858e-05 -2.61927693e-04 -3.35987977e-04
      -2.13200969e-04 -2.45989184e-04 -3.15395824e-04 -2.13627922e-04
      -2.29173253e-04 -2.99366104e-04 -1.95843211e-04 5.50350633e-05
      -7.68244888e-07 6.10712450e-05 4.06332081e-04 3.65975167e-04
      3.63600324e-04 3.00080748e-04 2.63984344e-04 2.60019617e-04
      7.56496956e-05 6.67455752e-05 5.64089096e-05 3.33039156e-06
      2.89309082e-06 1.91788895e-05 1.68233491e-05 -3.33303296e-06
      2.00931645e-05 6.53538154e-06 9.30175065e-06 2.03405252e-05
      2.03066484e-05 2.55566010e-05 3.82620055e-05 6.60600381e-06
      2.42743263e-05 3.43988286e-05 -1.09430011e-05 1.94307268e-05
      2.20114052e-05 3.46286688e-05 1.79331328e-05 -3.24479806e-05
      2.43849208e-05 1.51141185e-05 6.74460753e-05 8.76287959e-06
      2.85473834e-06 5.51824487e-05 2.81949269e-05 2.76957289e-05
      4.63180004e-05 9.86841496e-06 2.01828552e-05 2.79827636e-05
      -4.16854709e-05 -2.09327973e-05 -1.05874078e-05 -2.34907886e-04
      -2.62411835e-04 -1.60668787e-04 -2.50270386e-04 -2.98615079e-04
      -2.20986054e-04 -2.50550016e-04 -3.09929223e-04 -2.20040834e-04
      -1.21086945e-04 -1.69434803e-04 -1.09509296e-04 1.77487309e-04
      1.53794754e-04 1.61104195e-04 3.98203847e-04 3.46952322e-04
      3.33273667e-04 3.28630180e-04 2.79332337e-04 2.80242122e-04
      9.45428765e-05 7.91991406e-05 7.87044191e-05 1.00879824e-05
      9.86709438e-06 1.26421874e-05 4.05179844e-06 -2.50322519e-05
      8.82005509e-07 1.26347832e-05 1.35490582e-05 2.46497311e-05
      2.32034336e-06 1.81056239e-05 3.82620055e-05 -4.11926476e-06
      1.66024620e-05 2.68859530e-05 8.70545864e-06 3.11202857e-05
      2.15034815e-05 2.70142227e-05 1.93997785e-05 4.13241323e-05
      2.67227133e-05 2.09426144e-05 6.10022216e-05 1.12818871e-05
      8.23720893e-06 6.40482176e-05 3.03650031e-05 2.30420701e-05
      4.37637937e-05 -3.51543385e-05 -1.44016640e-05 -1.15072517e-05
      -8.04146330e-05 -6.55095209e-05 -4.35938928e-05 -2.27088909e-04
      -2.83928530e-04 -1.72688218e-04 -2.30303936e-04 -3.05907073e-04
      -2.06936485e-04 -1.99155111e-04 -2.65636394e-04 -1.55890521e-04
      -1.38635209e-04 -2.03865158e-04 -1.19884891e-04 4.16742732e-05
      -4.41935044e-05 5.80168489e-06 2.40804817e-04 1.35328257e-04
      1.85623750e-04 1.61831005e-04 4.78920883e-05 1.37877592e-04
      -4.76758796e-05 -1.55128102e-04 -7.76300585e-05 -1.26907296e-04
      -2.24619143e-04 -1.38658754e-04 -1.28007028e-04 -2.25811731e-04
      -1.12791568e-04 -4.71788044e-05 -8.92769895e-05 -3.28744645e-05
      9.77132095e-06 7.31420960e-06 2.78856696e-05 6.25707253e-06
      2.15079581e-05 3.17914491e-05 9.05549996e-07 1.36109556e-05
      1.97442332e-05 -4.39757423e-06 6.31896955e-06 2.86496779e-05
      8.10916663e-06 1.84236069e-05 4.73825421e-05 -8.61393346e-06
      4.11794417e-06 4.21325894e-05 7.32293438e-06 1.09416806e-05
      3.18533457e-05 -6.29063943e-05 -2.56174062e-05 -2.54893621e-05
      -1.00216515e-04 -7.80194241e-05 -5.80529777e-05 -2.15736407e-04
      -2.79810571e-04 -1.75831316e-04 -2.14855711e-04 -2.97320919e-04
      -1.98032358e-04 -2.43378658e-04 -3.17199010e-04 -2.08258425e-04
      -2.10210768e-04 -3.02288332e-04 -1.94390072e-04 -6.45532709e-05
      -1.71696243e-04 -9.76550218e-05 1.55609581e-04 4.26555598e-05
      1.15308467e-04 3.69102636e-05 -6.52375238e-05 1.47427936e-05
      -1.67315724e-04 -2.62698508e-04 -1.68605402e-04 -2.01406903e-04
      -3.03295441e-04 -2.10838014e-04 -1.70889558e-04 -2.71208788e-04
      -1.54976238e-04 -5.77847568e-05 -8.05040690e-05 -3.11152144e-05
      -5.23220433e-06 5.88328749e-06 1.71826250e-05 1.39863587e-05
      1.54011523e-05 2.38634984e-05 1.14408786e-05 1.06546468e-05
      1.48077879e-05 1.68542974e-05 2.33600513e-05 3.65070082e-05
      8.07821743e-06 1.17279124e-05 3.26395784e-05 1.75402802e-05
      1.84236069e-05 4.93052576e-05 1.41466708e-05 1.47120145e-05
      3.05591930e-05 -7.14263879e-05 -5.16467335e-05 -4.33124296e-05
      -1.10283596e-04 -8.61373119e-05 -7.36218499e-05 -7.93754734e-05
      -7.51646803e-05 -6.24902241e-05 -7.93445215e-05 -8.32119549e-05
      -7.45596626e-05 -7.92870997e-05 -8.67732742e-05 -6.00418389e-05
      -8.15455496e-05 -7.65472068e-05 -5.10480277e-05 4.76285750e-05
      2.46074105e-05 1.32667810e-05 1.37055336e-04 1.26224244e-04
      1.18935190e-04 9.06239438e-05 7.24037818e-05 8.70744989e-05
      -3.90891109e-05 -4.19303469e-05 -4.97670735e-05 -8.83279936e-05
      -7.45741781e-05 -8.92700627e-05 -3.28974274e-05 -4.37594645e-05
      -3.30799630e-05 1.58239436e-05 -3.80890668e-07 1.97606714e-05
      1.87828809e-05 5.85233920e-06 2.64547471e-05 2.83229692e-05
      1.27937747e-05 2.21042501e-05 9.02344073e-06 1.28247239e-05
      1.91479412e-05 2.88308929e-05 2.32010607e-05 3.44297769e-05
      1.45913755e-05 4.24598693e-06 1.94659242e-05 1.90198989e-05
      8.64356116e-06 2.68198073e-05 1.30808094e-05 -9.43559007e-06
      2.63515576e-05 -4.57769420e-05 -3.44244327e-05 -1.62791366e-05
      -8.25172465e-05 -7.06964856e-05 -5.52866077e-05 -8.76126796e-05
      -7.76130692e-05 -6.29584756e-05 -9.94302827e-05 -9.05348861e-05
      -7.31139226e-05 -8.44664319e-05 -9.78974931e-05 -4.99128619e-05
      -7.96889799e-05 -8.08519326e-05 -6.48148198e-05 -7.00724049e-05
      -8.01011265e-05 -7.79310503e-05 -6.41510560e-05 -7.54429930e-05
      -6.94068076e-05 -7.79268012e-05 -6.79920122e-05 -6.00066414e-05
      -8.79629370e-05 -6.95039053e-05 -8.32119549e-05 -5.68646428e-05
      -6.31539806e-05 -5.29940589e-05 -2.20029069e-05 -2.37047352e-05
      -1.22860802e-05 1.10623196e-05 1.29527662e-05 3.34845536e-05
      1.53702040e-05 1.55291946e-05 2.10000362e-05 1.35181099e-05
      7.88827765e-06 1.91479412e-05 6.85336454e-06 3.36266089e-06
      1.62844790e-05 2.46806794e-05 1.14099303e-05 2.70097462e-05
      2.47735243e-05 2.35809403e-05 4.21325894e-05 2.59896533e-05
      1.84458313e-05 4.45500264e-05 5.50514815e-05 2.76605315e-05
      5.33274288e-05 1.91362888e-05 5.49306424e-06 3.48022513e-05
      1.53411133e-06 -4.37535027e-06 2.29537000e-05 7.63219214e-06
      1.25067409e-05 3.77585602e-05 2.47351727e-05 9.80226923e-06
      4.51211672e-05 4.35709262e-05 2.03685468e-05 5.44861359e-05
      1.46503453e-05 1.30456119e-05 4.24785940e-05 3.11173608e-05
      2.93314115e-05 4.95496897e-05 8.55094368e-06 1.51847398e-05
      2.08145721e-05 2.84864382e-05 3.53146497e-05 5.56609739e-05
      1.17279124e-05 2.09735626e-05 4.33309724e-05 -8.39752101e-06
      -1.38384473e-06 8.96154415e-06 -3.21239418e-06 5.81977156e-06
      3.02245439e-06 1.55027228e-05 2.35809403e-05 2.11016068e-05
      5.69172880e-06 2.04346925e-05 2.82036526e-05 1.33326457e-05
      1.59090741e-05 2.71687386e-05 4.78485799e-06 1.67924009e-05
      3.55030425e-05 3.71342467e-05 2.73542028e-05 6.04324014e-05</_>
    <_>
      2.31602535e-05 1.13036122e-05 5.20484900e-05 3.58537800e-05
      2.81069497e-05 6.13812153e-05 2.54934821e-05 2.15247728e-05
      5.13320774e-05 9.79680135e-06 1.76063859e-05 4.91677092e-05
      2.01595049e-05 2.43185750e-05 5.07002624e-05 2.97079550e-05
      3.01832115e-05 5.20420544e-05 3.41905470e-05 2.52785157e-05
      4.97086803e-05 3.05130507e-05 1.54983609e-05 3.37096790e-05
      5.75645063e-05 4.83802469e-05 7.08281659e-05 6.01595275e-05
      5.80730702e-05 6.43808235e-05 2.18323257e-05 3.91448521e-05
      6.81461461e-05 1.05125437e-05 2.67036685e-05 3.85222411e-05
      2.96036378e-05 3.88528570e-05 3.90495698e-05 3.68770270e-05
      4.78907714e-05 6.93858674e-05 5.03777810e-05 6.22556399e-05
      8.30058998e-05 5.23819945e-05 5.65062837e-05 6.17584956e-05
      3.10639152e-05 3.70403759e-05 5.68687828e-05 1.26416753e-05
      3.36394733e-05 7.64014403e-05 3.47024288e-05 5.55157967e-05
      7.62629134e-05 1.40817383e-05 2.90193366e-05 3.92100737e-05
      3.18681268e-05 3.81724421e-05 7.27086590e-05 2.97218448e-05
      3.21837506e-05 6.85815321e-05 2.57989268e-05 3.64560074e-05
      5.60668668e-05 3.42393796e-05 3.66863169e-05 5.87970826e-05
      3.31378287e-05 3.53630312e-05 5.19037094e-05 3.93364608e-05
      4.05695719e-05 5.37934102e-05 3.59012301e-05 3.94247836e-05
      5.42272683e-05 2.56606545e-05 2.24370870e-05 3.63649488e-05
      3.65373598e-05 2.49353216e-05 4.91295832e-05 6.15444005e-05
      5.27232987e-05 7.41169570e-05 1.22953774e-04 1.29769673e-04
      1.47955798e-04 5.95649908e-05 6.83699909e-05 7.70711486e-05
      3.15667457e-05 3.70309353e-05 4.43008321e-05 1.48219669e-05
      2.43599370e-05 5.18391098e-05 3.80917081e-05 4.87162979e-05
      6.96209536e-05 3.95561110e-05 4.54463043e-05 4.56513117e-05
      3.49283437e-05 3.84028572e-05 5.81505883e-05 2.82553174e-05
      3.61799684e-05 7.29921157e-05 3.35608092e-05 4.90546845e-05
      6.41772349e-05 2.92223940e-05 3.90145651e-05 4.43026693e-05
      4.42961209e-05 2.73987098e-05 6.75901974e-05 2.98779159e-05
      2.72633952e-05 6.50457514e-05 2.46135078e-05 3.15994257e-05
      6.64148174e-05 3.42641943e-05 4.59753901e-05 7.13149275e-05
      1.19925153e-05 3.10571340e-05 5.38776658e-05 -2.10907801e-05
      -1.90143492e-05 3.52407460e-06 -6.84163824e-05 -6.70208756e-05
      -5.26046570e-05 -6.84050174e-05 -7.40945106e-05 -4.88276783e-05
      -4.26203587e-05 -5.28861347e-05 -3.80283163e-05 1.13124050e-04
      9.85673541e-05 1.20240591e-04 2.41101778e-04 2.36652661e-04
      2.44588708e-04 1.06056279e-04 1.08440443e-04 1.14043869e-04
      -2.23598308e-05 -1.68655497e-05 -7.82915686e-06 1.54993486e-05
      1.80570114e-05 5.59270229e-05 1.33170206e-05 3.26211812e-05
      5.48585776e-05 1.95836874e-05 3.58814505e-05 4.51870910e-05
      1.95760658e-05 2.04991466e-05 3.27914895e-05 2.81870471e-05
      3.25502842e-05 7.13876580e-05 3.99831697e-05 3.67608445e-05
      4.85535675e-05 3.63582622e-05 3.15601974e-05 4.25331527e-05
      4.21019577e-05 1.93785145e-05 6.81377933e-05 2.67544365e-05
      2.14725169e-05 6.81464735e-05 1.42872623e-05 1.75832629e-05
      5.38339882e-05 1.68300958e-05 2.19686699e-05 5.67587595e-05
      -3.00244465e-05 -1.45728782e-05 8.20418336e-06 -1.35982380e-04
      -1.20902499e-04 -8.62088564e-05 -2.65158684e-04 -2.85223534e-04
      -2.06431811e-04 -1.99532253e-04 -2.61317444e-04 -1.62063545e-04
      -4.56130947e-05 -1.14995841e-04 -3.69577756e-05 1.01003789e-04
      3.79528465e-05 1.11805915e-04 1.93362852e-04 1.30949440e-04
      2.11665480e-04 4.85949422e-05 -1.14959666e-05 7.08798907e-05
      -1.55873495e-04 -2.22031871e-04 -1.32938556e-04 -7.89886035e-05
      -8.14163868e-05 -5.21170914e-05 -1.24665376e-05 1.24249773e-05
      2.17406887e-05 2.54973165e-05 4.63035576e-05 3.96284850e-05
      3.60733138e-05 3.03873785e-05 4.39934120e-05 2.44248477e-05
      2.72042489e-05 5.08849043e-05 3.36091689e-05 3.53019605e-05
      4.36733899e-05 2.41885355e-05 3.20904728e-05 3.61599450e-05
      -4.97082465e-06 1.51220675e-05 7.20909011e-05 1.64030516e-05
      2.70171349e-05 6.47130073e-05 1.53539804e-05 1.96139736e-05
      6.67405184e-05 1.44307171e-06 2.12775085e-05 5.16197506e-05
      -5.37463711e-05 -3.53572068e-05 -1.99482147e-05 -1.55245885e-04
      -1.37172727e-04 -1.02920902e-04 -2.56868079e-04 -2.77281099e-04
      -1.97404181e-04 1.37420884e-05 -4.44561374e-05 3.41488121e-05
      2.24438423e-04 1.43179321e-04 1.94791006e-04 2.62866990e-04
      1.89020546e-04 2.36753272e-04 2.32913852e-04 1.86992344e-04
      2.41652393e-04 3.02313401e-05 -3.40002771e-05 4.38917377e-05
      -1.82555959e-04 -2.46335549e-04 -1.55485017e-04 -2.73980899e-04
      -3.25564179e-04 -2.12497791e-04 -1.04081570e-04 -9.95711453e-05
      -5.85354646e-05 5.81164295e-06 3.03224588e-05 3.03465258e-05
      3.04692330e-05 2.23043608e-05 3.46871238e-05 2.25717631e-05
      2.68750173e-05 5.79313419e-05 2.99177918e-05 3.76532116e-05
      4.81707611e-05 1.71536230e-05 2.16195331e-05 3.18120765e-05
      -3.16998412e-05 1.27833164e-05 5.12696424e-05 -3.25995688e-06
      7.69310827e-06 3.99318415e-05 2.18371024e-05 2.15307591e-05
      5.20751710e-05 8.99649604e-06 2.17497400e-05 4.22834128e-05
      -1.45458716e-05 5.32003969e-06 1.18151847e-05 -3.28362876e-05
      -2.20015409e-05 -1.26821840e-06 -5.09969614e-05 -6.04682064e-05
      -1.35390210e-05 2.84943293e-04 3.04937857e-04 2.79317435e-04
      4.30015760e-04 4.18315991e-04 3.87138338e-04 4.40570351e-04
      4.23535384e-04 3.97621305e-04 4.26427287e-04 4.14034468e-04
      4.16287628e-04 7.77597306e-05 2.96768758e-06 8.06616808e-05
      -1.60964861e-04 -2.36818174e-04 -1.26124956e-04 -2.67545925e-04
      -3.14032659e-04 -2.12177896e-04 -2.02498719e-04 -2.28391626e-04
      -1.29891079e-04 -1.07639517e-05 1.38386595e-05 1.35176761e-05
      4.58441937e-05 3.90403075e-05 4.22777957e-05 1.84434630e-05
      2.32832044e-05 5.01755130e-05 3.16325204e-05 3.39535836e-05
      4.71296298e-05 1.53667370e-05 3.49584734e-05 4.59524599e-05
      -5.16580258e-05 1.09028524e-05 1.09191897e-04 -1.15107641e-05
      5.05231174e-06 5.38720524e-05 3.98170414e-06 2.61982404e-05
      4.48260653e-05 2.31882714e-05 2.94510592e-05 4.03718477e-05
      1.56758706e-05 2.76973242e-05 3.09681054e-05 2.16222124e-05
      3.34877004e-05 3.94483868e-05 1.39680733e-05 2.76407609e-05
      3.53993128e-05 1.70709915e-04 1.85465236e-04 1.71389387e-04
      2.38061402e-04 2.11307735e-04 2.11494233e-04 3.40090744e-04
      3.25600151e-04 3.19419632e-04 4.49544750e-04 4.31970780e-04
      4.34834277e-04 1.99868067e-04 1.53746645e-04 1.87304671e-04
      -1.33276539e-04 -2.26453296e-04 -1.16311523e-04 -2.68800533e-04
      -3.21276049e-04 -2.04703771e-04 -2.29382160e-04 -2.58867920e-04
      -1.51925429e-04 -9.69809116e-06 -9.02320880e-06 1.33331378e-05
      6.81344454e-06 1.66863556e-05 1.76693138e-05 -9.45663260e-07
      1.67051130e-05 3.06948787e-05 2.24413197e-05 3.03952020e-05
      4.70352134e-05 -2.80381792e-05 1.78977716e-05 3.74956471e-05
      -1.17535375e-04 -1.33566218e-05 1.53058500e-04 -3.74560914e-05
      6.83661574e-06 6.29585193e-05 -3.15529746e-07 1.92845382e-05
      3.61522325e-05 -6.70241434e-06 1.54396603e-05 3.61105303e-05
      2.26989378e-05 3.74397823e-05 2.77135387e-05 -1.43412362e-05
      1.32921441e-05 2.10665075e-05 -9.03608725e-06 1.34521160e-05
      2.35204152e-05 1.81967407e-05 3.31289193e-05 4.67516256e-05
      3.74552110e-05 4.90629864e-05 4.75856286e-05 2.05807737e-04
      2.01633229e-04 1.96034380e-04 3.74297553e-04 3.35158431e-04
      3.43030813e-04 2.01790797e-04 1.37425610e-04 1.74387329e-04
      -1.37860770e-04 -2.25375887e-04 -1.12626003e-04 -2.68158561e-04
      -3.26379610e-04 -2.19168913e-04 -1.75150722e-04 -2.08509562e-04
      -1.08081054e-04 -2.07238827e-05 -5.24812731e-06 3.51018184e-06
      4.02312708e-06 2.01450566e-05 1.63084424e-05 -1.79431427e-05
      8.12361486e-06 2.82419078e-05 4.75209254e-06 2.21351147e-05
      2.11656843e-05 -5.75207850e-05 -3.98462407e-06 2.90145126e-05
      -1.57334507e-04 -1.97601912e-05 1.51127868e-04 -6.75324773e-05
      -2.16548597e-05 5.58539214e-05 -5.41282407e-06 1.29580430e-05
      4.59002185e-05 -3.94972176e-06 2.26240991e-05 4.75673805e-05
      5.55603037e-06 1.83418197e-05 1.55757007e-05 -1.17399520e-06
      3.94677272e-06 1.35936389e-05 -4.28740495e-05 -3.46107990e-05
      -3.47486857e-05 -7.72871936e-05 -6.06642607e-05 -7.44787030e-05
      -8.26916366e-05 -6.38716301e-05 -8.12388753e-05 6.63667670e-05
      8.83382818e-05 8.53998572e-05 2.22116985e-04 1.65022808e-04
      1.98199035e-04 8.52804951e-05 -1.00393554e-05 8.67545314e-05
      -1.34995935e-04 -2.02055686e-04 -1.15063798e-04 -2.10256068e-04
      -2.56676489e-04 -1.56180642e-04 -5.37810702e-05 -5.29510035e-05
      -7.04805234e-06 -1.38528740e-05 -3.40181373e-06 1.73142435e-05
      1.53889705e-05 2.68434560e-05 1.99413716e-05 -6.89304716e-06
      1.46214888e-05 2.50310732e-05 -8.18258104e-06 2.70659839e-05
      2.76078463e-05 -6.96357965e-05 -9.56845452e-06 4.15664254e-05
      -1.69786072e-04 -3.26113732e-05 1.51828106e-04 -6.46600747e-05
      -1.30451535e-05 5.74324622e-05 -1.38431897e-05 2.97470547e-06
      4.26184888e-05 6.40730968e-06 1.98005928e-05 4.11055771e-05
      2.39434985e-06 2.51314505e-05 2.39961100e-05 -5.55347970e-06
      6.01987358e-06 1.15782614e-05 -9.05369598e-05 -1.06149157e-04
      -8.11390491e-05 -2.50192243e-04 -2.88243144e-04 -2.12507221e-04
      -2.72864883e-04 -3.20720399e-04 -2.29546655e-04 -1.00235127e-04
      -1.42978723e-04 -7.28959276e-05 1.35547874e-04 6.59088182e-05
      1.28606072e-04 1.01308498e-04 1.91509025e-05 9.71061309e-05
      -7.11695902e-05 -1.47312239e-04 -7.98337933e-05 -4.43238823e-05
      -4.22042940e-05 -1.37754741e-05 -1.65737565e-05 -5.33735090e-07
      2.29363741e-05 -1.04087530e-06 5.36245079e-06 7.08562357e-06
      9.65015988e-06 2.67578835e-05 1.16292613e-05 -1.33892900e-05
      1.32694067e-05 1.62380820e-05 -1.93209889e-05 1.81141822e-05
      1.56525111e-05 -3.77488541e-05 3.99846931e-06 6.74643379e-05
      -1.52938388e-04 -3.33977659e-05 1.29201682e-04 -4.95589738e-05
      -5.58650186e-07 5.16870678e-05 -1.28605943e-05 4.19334810e-06
      2.74813574e-05 -1.10888559e-05 8.10988331e-06 2.11127372e-05
      8.38942378e-06 1.59812498e-05 3.30169751e-05 -2.67165569e-06
      1.56456554e-06 7.78286631e-06 -8.93307588e-05 -8.69292271e-05
      -7.93603249e-05 -2.21180104e-04 -2.74661172e-04 -1.78401213e-04
      -2.56183499e-04 -3.05126916e-04 -2.01759685e-04 -8.35634346e-05
      -1.39653159e-04 -5.87133254e-05 1.43537152e-04 5.82621469e-05
      1.33089561e-04 5.66864619e-05 -3.44093351e-05 5.55272600e-05
      -1.21816447e-04 -2.20547008e-04 -1.48510648e-04 -2.09817546e-04
      -2.61572364e-04 -1.81851734e-04 -3.86975880e-05 -4.30867549e-05
      -2.24034320e-05 -1.64440316e-05 1.61569028e-06 4.88329806e-06
      1.13962903e-06 2.55655559e-05 1.80659736e-05 4.69143970e-06
      2.32733328e-05 3.48094800e-05 -3.42498388e-05 -6.29883925e-06
      6.47175511e-06 -6.65721291e-06 1.28892916e-05 5.18420857e-05
      -1.29977925e-04 -1.31000652e-05 9.65706422e-05 -5.49049764e-05
      -7.07695244e-06 4.02621044e-05 9.54739608e-06 1.13521610e-05
      2.05761280e-05 6.70531472e-06 2.25766598e-05 2.34862764e-05
      8.01925034e-06 2.52267928e-05 3.07388618e-05 1.41680202e-05
      1.93616888e-05 2.36138385e-05 5.29788576e-06 -5.65100754e-06
      1.88411341e-05 3.61341631e-06 3.32090599e-06 1.05615818e-05
      -1.01381811e-05 -1.21846087e-05 -3.26743276e-07 1.21182973e-04
      1.27452207e-04 1.38520219e-04 3.11081589e-04 2.71852856e-04
      2.86736089e-04 1.23453734e-04 3.29369323e-05 1.05166888e-04
      -1.45744023e-04 -2.37943299e-04 -1.59908013e-04 -2.66742689e-04
      -3.45495500e-04 -2.30189980e-04 -2.34917636e-04 -2.94958765e-04
      -1.87589219e-04 -4.45369988e-05 -4.87168290e-05 -2.02258125e-05
      -2.24761679e-05 7.32077979e-07 1.86824309e-05 1.49162706e-05
      3.63133513e-05 5.38569038e-05 4.70704799e-06 1.74987763e-05
      2.47195458e-05 -1.38404830e-05 2.10442504e-05 7.60860275e-05
      -8.21029244e-05 -8.95895755e-06 6.36488840e-05 -3.05160138e-05
      -1.00662498e-06 3.17403792e-05 -1.29756791e-05 4.49731579e-06
      2.32669336e-05 3.77736001e-06 1.70672065e-05 3.70464622e-05
      8.80468804e-07 1.00527268e-05 1.69162195e-05 1.14844288e-05
      1.78304763e-05 1.62231481e-05 1.35761438e-05 1.93131086e-06
      2.15766449e-05 1.82155472e-05 1.35974815e-05 1.94848180e-05
      1.71947420e-06 -3.83085222e-07 1.49314847e-05 2.05221397e-04
      1.74939240e-04 1.83832046e-04 4.39570402e-04 3.86865315e-04
      3.88404500e-04 2.80518871e-04 2.43136572e-04 2.24863368e-04
      -8.34880702e-05 -1.54217822e-04 -1.06381216e-04 -2.64688424e-04
      -3.31282383e-04 -2.31745216e-04 -2.51845544e-04 -3.26884008e-04
      -2.26293138e-04 -1.57803850e-04 -1.68532584e-04 -1.15036230e-04
      -2.80342720e-05 -7.39582492e-06 5.20986123e-06 1.04373266e-05
      2.35961325e-05 4.61348827e-05 -1.42321742e-05 1.54332647e-05
      1.82449130e-05 1.33727826e-05 4.12737063e-05 6.18522245e-05
      -3.00809334e-05 -8.04408410e-06 2.40565405e-05 9.19026570e-06
      1.04162370e-06 3.92645525e-05 1.45725426e-05 3.09788411e-05
      4.38630304e-05 -4.24080190e-06 1.85661265e-05 3.29756222e-05
      6.60541946e-06 1.08977802e-05 2.08891470e-05 8.55549843e-06
      3.57566478e-06 2.58386881e-05 1.01875657e-05 2.13540389e-07
      2.73453406e-05 2.13139720e-05 5.62740797e-06 2.13327385e-05
      -1.10385145e-05 2.34691743e-06 7.66612993e-06 1.88429389e-04
      1.69030653e-04 1.72836357e-04 4.58463852e-04 4.07712680e-04
      4.09040600e-04 3.17973405e-04 2.77732033e-04 2.84950191e-04
      -6.52316157e-05 -9.76170559e-05 -7.47971644e-05 -2.45399744e-04
      -3.09468887e-04 -2.10980972e-04 -2.55614868e-04 -3.26981855e-04
      -2.23340176e-04 -1.96085981e-04 -2.29234734e-04 -1.55671209e-04
      -1.80866464e-05 -7.40505357e-06 -1.44480680e-06 1.07333271e-05
      2.81726952e-05 3.06112670e-05 -6.77983371e-06 2.55553114e-05
      1.85613426e-05 5.05699827e-05 4.50055086e-05 6.30069262e-05
      1.20038412e-05 7.99940244e-06 3.91205431e-05 3.84154737e-06
      6.73969134e-06 3.95874267e-05 3.54373446e-06 1.54416630e-05
      3.51841772e-05 3.82631288e-06 1.94532422e-05 2.53618746e-05
      -1.15482271e-05 -3.19349851e-06 3.17421950e-06 -1.03521903e-04
      -1.00762612e-04 -3.73719668e-05 -1.47724058e-05 -2.56118910e-05
      6.73320255e-06 -2.21692608e-05 -2.01639323e-05 -4.86352019e-06
      -9.25271536e-07 1.34661468e-06 1.60407944e-05 1.59886535e-04
      1.54082445e-04 1.46883758e-04 4.17728326e-04 3.84982151e-04
      3.69071844e-04 2.90799857e-04 2.62103917e-04 2.62972986e-04
      -1.23786245e-04 -1.77949260e-04 -9.33099655e-05 -2.52785918e-04
      -3.17562401e-04 -2.26388744e-04 -2.55346182e-04 -3.29275616e-04
      -2.34737454e-04 -1.91605752e-04 -2.17421984e-04 -1.45446058e-04
      -3.64933403e-05 -2.02730334e-05 -8.87676651e-06 -9.28413283e-06
      8.33966442e-06 1.58083494e-05 1.45046979e-05 3.12414777e-05
      1.89941693e-05 3.25234978e-05 2.73068763e-05 4.47450657e-05
      3.61195926e-05 3.30943003e-05 5.17699918e-05 2.20013135e-05
      2.10417620e-05 5.38995228e-05 1.11005229e-05 1.06300104e-05
      2.80464847e-05 -1.93977612e-05 1.97885993e-06 4.01153511e-06
      -7.50351028e-05 -5.46281444e-05 -4.67645987e-05 -1.64962839e-04
      -1.61337070e-04 -1.10063025e-04 -2.06515106e-04 -2.73054582e-04
      -1.58105773e-04 -1.87735961e-04 -2.53650214e-04 -1.40139469e-04
      -1.60198149e-04 -2.15397406e-04 -1.22201280e-04 2.56217591e-05
      -3.40713777e-05 1.42153485e-05 2.14257030e-04 1.37561758e-04
      1.81066323e-04 1.18875301e-04 2.52213031e-05 1.24181970e-04
      -1.46966646e-04 -2.21432521e-04 -1.25517006e-04 -2.48331402e-04
      -3.02789209e-04 -2.19360736e-04 -2.40396228e-04 -3.16184363e-04
      -2.26735705e-04 -1.02957973e-04 -1.04509701e-04 -6.77738062e-05
      -1.16848450e-05 3.95142433e-06 1.42165823e-06 6.00240310e-06
      1.77454913e-05 2.56906860e-05 1.56567530e-05 2.22249673e-05
      2.86602335e-05 3.94774906e-06 1.03619604e-05 3.23916101e-05
      1.45307013e-05 2.23361731e-05 4.49737345e-05 -3.48982371e-06
      3.59949763e-06 3.63242325e-05 1.01246242e-05 1.18481676e-05
      4.37095987e-05 -8.73277804e-06 1.34336869e-05 1.59354786e-05
      -7.01665995e-05 -5.38963432e-05 -3.53834366e-05 -1.65217643e-04
      -1.80491974e-04 -1.25913037e-04 -2.55683670e-04 -3.29398346e-04
      -2.21187394e-04 -2.45119736e-04 -3.22296954e-04 -2.15451189e-04
      -2.18784931e-04 -2.93494872e-04 -1.90901017e-04 -7.30613028e-05
      -1.47268220e-04 -9.24138149e-05 1.42578210e-04 4.75090201e-05
      1.41140568e-04 9.11856405e-05 -7.66006494e-08 1.04158498e-04
      -1.55478585e-04 -2.35241168e-04 -1.49893254e-04 -2.38665350e-04
      -2.89907475e-04 -2.23469106e-04 -1.01929152e-04 -1.50126856e-04
      -9.51977927e-05 -3.78651966e-05 -3.58880607e-05 -2.88523370e-05
      8.19269826e-06 1.75207515e-05 1.52760913e-05 2.59082499e-05
      1.63646891e-05 3.21944899e-05 5.70562770e-06 1.87256883e-05
      2.36925371e-05 1.93853903e-05 2.98415216e-05 4.85764795e-05
      1.17813524e-05 1.80507577e-05 1.36353028e-05 8.62911565e-06
      1.24063654e-05 3.62317951e-05 7.12372957e-06 1.49553234e-05
      2.49129680e-05 -1.77956997e-06 1.84480232e-05 1.99184124e-05
      -2.88731226e-05 -1.72476757e-05 -1.17416648e-05 -7.96640525e-05
      -6.96487186e-05 -6.53420939e-05 -1.05277235e-04 -1.14000650e-04
      -1.03976898e-04 -1.14486138e-04 -1.34583752e-04 -1.04700492e-04
      -1.50622262e-04 -1.81445706e-04 -1.34251590e-04 -5.41276640e-05
      -9.99305121e-05 -7.32679619e-05 3.39029939e-05 -6.87310603e-06
      3.47559617e-05 4.78200855e-05 -6.19880393e-06 5.44652685e-05
      -4.67746213e-05 -4.58788163e-05 -4.73693653e-05 -5.38362365e-05
      -4.18517666e-05 -5.99427367e-05 -2.07827015e-05 -3.37836682e-05
      -2.35532571e-05 4.11350447e-06 -7.66158905e-07 -1.09842631e-06
      2.82080273e-05 1.66704231e-05 1.28147085e-05 2.70573146e-05
      1.33158401e-05 3.13229539e-05 2.71691406e-05 1.77360616e-05
      2.29067264e-05 3.03601228e-05 2.51184574e-05 4.25554645e-05
      5.76159437e-07 -1.32683572e-05 -5.27375778e-05 4.09409904e-06
      -1.91809104e-05 -3.75512500e-05 6.65770312e-06 -2.44840903e-05
      -1.95952416e-05 -1.24279595e-05 -5.71684086e-06 -1.97599347e-05
      -8.74010857e-06 -7.55042493e-06 -2.19325011e-05 -9.66751486e-06
      -9.33573847e-06 -2.28059362e-05 -2.36592787e-05 -2.61791483e-05
      -2.81594093e-05 -1.69584546e-05 -3.56752498e-05 -2.60457964e-05
      -3.15833313e-05 -4.10630455e-05 -5.09439451e-05 -3.48268368e-05
      -3.47677596e-05 -6.17459373e-05 -6.53348889e-06 -1.88850190e-05
      -1.57723316e-05 3.49358265e-06 5.18547131e-06 7.52686992e-06
      -3.40770953e-06 8.68671123e-06 -1.34841375e-05 1.80649513e-05
      9.16247154e-06 5.18885963e-06 1.26976838e-05 9.95588562e-06
      1.09162092e-05 2.58176919e-06 1.45419317e-05 1.29416412e-05
      7.81287599e-06 1.33873546e-05 8.49490732e-07 6.65776224e-06
      9.65464278e-06 6.13985139e-06 1.76737194e-05 1.22617275e-05
      3.91628873e-06 4.05095961e-05 2.99350158e-05 3.62864666e-05
      3.42856438e-05 4.50355628e-06 -6.68902212e-05 1.24201542e-05
      -2.68527056e-05 -6.48055138e-05 2.04850439e-05 -1.87476235e-05
      -7.93490835e-05 8.54661448e-06 -8.77747880e-06 -7.33779816e-05
      7.15942542e-06 -3.84221858e-06 -5.76738785e-05 9.55527685e-06
      -1.54959307e-05 -3.85341518e-05 1.00861025e-05 -1.16643387e-05
      -2.73900605e-05 1.65212350e-05 -4.22589801e-06 -3.23577879e-05
      1.49016587e-05 2.67830819e-06 -2.34115814e-05 1.16623942e-05
      1.00047546e-05 -2.53499165e-05 3.45006410e-05 2.25954773e-05
      -3.00364945e-07 3.01413347e-05 4.04151069e-05 4.30706641e-05
      1.85921035e-05 4.31083427e-05 4.44603393e-05 -4.45934029e-06
      -2.95577127e-08 -1.94716631e-05 -6.77738171e-06 5.25945461e-06
      -2.25009608e-05 1.93041637e-06 1.98925427e-05 -1.38659125e-05
      2.09430186e-06 2.05981887e-05 -7.37154051e-06 8.27330587e-06
      1.59485608e-05 7.58530234e-07 2.83049685e-05 3.39676481e-05
      3.13755299e-05 3.36018056e-05 3.59869373e-05 5.02993134e-05</_>
    <_>
      2.12859868e-05 1.00794196e-05 6.57784403e-05 1.87317619e-05
      2.39566034e-05 7.73083084e-05 3.19636783e-05 3.39826693e-05
      8.01320930e-05 3.14775352e-05 4.26299994e-05 8.66992559e-05
      2.24221276e-05 4.13918169e-05 7.60283438e-05 2.05761753e-05
      4.32941706e-05 7.41661352e-05 2.83265872e-05 3.82873659e-05
      7.09709930e-05 3.67492139e-05 4.22876255e-05 7.39381139e-05
      6.02002510e-05 5.88095463e-05 9.02077882e-05 4.67028258e-05
      6.23393353e-05 8.84167384e-05 2.87584080e-05 4.39014257e-05
      9.37646400e-05 1.07640608e-05 2.94248839e-05 6.29788774e-05
      3.38920363e-05 5.96624632e-05 6.74559997e-05 2.99252006e-05
      5.12050719e-05 7.88562029e-05 4.93240295e-05 6.56904595e-05
      1.12329813e-04 5.22096852e-05 6.51894370e-05 9.56426229e-05
      3.52415518e-05 4.67724567e-05 8.47842530e-05 2.08586298e-05
      4.84204102e-05 1.01351106e-04 2.22290510e-05 5.07143523e-05
      9.42398401e-05 1.26178757e-05 3.26826485e-05 8.35299506e-05
      1.85223544e-05 2.12051964e-05 7.45625366e-05 2.82539932e-05
      3.04308123e-05 7.91266357e-05 2.16901990e-05 2.60482666e-05
      6.89803346e-05 3.64063453e-05 4.13803791e-05 7.72662097e-05
      2.33329865e-05 3.63494291e-05 6.74474722e-05 3.65561973e-05
      5.37404630e-05 7.73877473e-05 4.89572594e-05 5.69970071e-05
      8.20978676e-05 3.06456350e-05 3.86853826e-05 6.39204954e-05
      5.61659035e-05 5.16709224e-05 8.12910730e-05 6.37679041e-05
      6.81524616e-05 9.79485558e-05 7.89444093e-05 8.99254883e-05
      1.35950962e-04 5.09884958e-05 6.52555973e-05 8.74242687e-05
      4.65496778e-05 5.10366917e-05 6.49306821e-05 2.84299385e-05
      4.39301766e-05 7.55402798e-05 3.08383969e-05 4.06046529e-05
      8.24627205e-05 3.87387554e-05 4.75141424e-05 7.69298713e-05
      3.53884461e-05 4.25343096e-05 8.05461023e-05 2.64858027e-05
      3.00386819e-05 8.06591779e-05 2.87950970e-05 4.85103155e-05
      7.53575659e-05 1.57426639e-05 3.72021896e-05 6.45799300e-05
      2.26528882e-05 2.03329600e-05 7.21491597e-05 3.42178537e-05
      3.63423569e-05 8.50381839e-05 2.64856408e-05 3.20584040e-05
      7.45087600e-05 3.69365080e-05 4.32821871e-05 8.09720295e-05
      2.72035704e-05 3.50828268e-05 7.97426037e-05 3.70417692e-05
      5.42017260e-05 8.45720933e-05 4.43784302e-05 5.00863280e-05
      7.57135640e-05 3.73841722e-05 4.64135810e-05 7.17829462e-05
      6.53517200e-05 6.60992664e-05 9.38213998e-05 1.26091953e-04
      1.34720685e-04 1.52918088e-04 2.05941105e-04 2.19210822e-04
      2.48538738e-04 2.05176475e-04 2.16265980e-04 2.28668549e-04
      7.93319050e-05 8.71214143e-05 9.37793811e-05 3.98736047e-05
      5.20204776e-05 7.84378572e-05 2.88692463e-05 4.71386120e-05
      8.03679213e-05 4.19780008e-05 4.52490276e-05 7.76930392e-05
      3.95891657e-05 3.40913975e-05 7.11070170e-05 3.55159427e-05
      3.67224056e-05 8.46752009e-05 3.84193772e-05 4.67071841e-05
      6.81732199e-05 2.98385075e-05 3.46301640e-05 5.42428388e-05
      3.38305399e-05 2.90535354e-05 7.66756857e-05 3.42125422e-05
      3.88457265e-05 8.80565858e-05 1.37024299e-05 3.17065096e-05
      7.54238717e-05 4.11934252e-06 1.61002572e-05 6.24003369e-05
      -2.16516355e-06 1.39429121e-05 5.44221657e-05 5.57387784e-06
      1.24691296e-05 6.28449416e-05 3.06394168e-06 1.47852006e-05
      5.61801571e-05 3.39600156e-05 3.37189995e-05 7.59506220e-05
      1.35730937e-04 1.33651018e-04 1.58181399e-04 2.16367640e-04
      2.17816691e-04 2.55562394e-04 1.27708496e-04 1.91115778e-05
      1.83120981e-04 4.02765181e-05 -9.27621804e-05 9.83775535e-05
      -1.49045474e-04 -2.83471978e-04 -9.78658936e-05 -1.20124794e-04
      -1.74199609e-04 -6.53791212e-05 -7.21099241e-06 1.85394019e-05
      5.11693434e-05 4.69385805e-06 2.05264314e-05 5.91167736e-05
      3.93667797e-05 2.79953820e-05 6.40201397e-05 3.70540947e-05
      3.78869590e-05 8.27211552e-05 4.15989598e-05 3.75812524e-05
      6.85826308e-05 2.26528773e-05 3.26333902e-05 5.26983240e-05
      1.73996232e-05 3.01935415e-05 8.03264629e-05 2.07442390e-05
      4.31608969e-05 8.24912859e-05 3.15293801e-05 4.41052434e-05
      8.60742875e-05 -3.87912405e-06 9.00524810e-06 5.87474060e-05
      -1.14519617e-05 -1.53527594e-06 4.36507362e-05 -9.64408446e-06
      -1.92452376e-06 4.49970867e-05 -9.47216176e-06 1.18443259e-05
      5.39172870e-05 1.06778876e-04 1.15691313e-04 1.43639787e-04
      2.76012579e-04 2.72446283e-04 2.95506761e-04 2.88780488e-04
      2.42640730e-04 3.18855047e-04 1.53497487e-04 5.33752718e-05
      2.12296873e-04 6.84968618e-05 -6.34293319e-05 1.09717956e-04
      -1.44723992e-04 -2.75063969e-04 -1.11426183e-04 -1.53611429e-04
      -1.97736445e-04 -8.94147670e-05 -1.82167314e-05 5.45347075e-06
      4.17407828e-05 2.01440434e-06 1.25712677e-05 4.28155108e-05
      2.36346514e-05 2.29489215e-05 6.05705100e-05 2.65681265e-05
      2.98310279e-05 7.62128184e-05 3.47996029e-05 4.38420502e-05
      7.10161548e-05 1.69947834e-05 2.40321733e-05 5.96984391e-05
      -6.39640029e-06 3.18507482e-05 8.11569989e-05 1.91530307e-05
      2.98628347e-05 6.17310361e-05 2.25793265e-05 2.80128570e-05
      6.41341903e-05 4.18623495e-06 1.87513051e-05 6.02591790e-05
      -3.94904691e-06 3.49292077e-06 4.35733782e-05 -7.48784714e-07
      1.14526611e-05 5.12808692e-05 -7.69901192e-07 2.69226121e-06
      3.42980020e-05 1.32287954e-04 1.49909625e-04 1.60728974e-04
      3.16895865e-04 3.08625720e-04 3.20687512e-04 1.40973265e-04
      1.56525221e-05 1.84960154e-04 1.24808212e-04 8.26061751e-06
      1.78529153e-04 6.83903563e-05 -7.56423979e-05 1.17316064e-04
      -1.19455726e-04 -2.58700340e-04 -7.68765894e-05 -1.42732752e-04
      -1.86436620e-04 -7.31460459e-05 -1.74783690e-05 1.26320265e-05
      4.55968584e-05 9.76021056e-06 2.71793979e-05 5.39005232e-05
      2.70025848e-05 2.61277910e-05 5.61586639e-05 3.46027264e-05
      2.53580110e-05 7.80987612e-05 2.14611337e-05 2.15598811e-05
      6.16070829e-05 8.15471083e-07 2.56385920e-05 6.63193059e-05
      -6.21357394e-05 7.88949092e-06 1.26179119e-04 -1.02938366e-05
      1.61570224e-05 6.62547609e-05 9.05887828e-06 3.33566422e-05
      6.00195817e-05 -7.19627496e-06 4.53310759e-06 4.49415456e-05
      -1.72053642e-05 4.22131188e-06 3.46400520e-05 -6.51108212e-06
      1.46963421e-05 4.99494017e-05 -2.02383762e-05 -1.29293744e-06
      3.52728421e-05 8.14820087e-05 8.29514101e-05 9.58171076e-05
      -4.36315986e-06 -9.87893945e-05 3.26249901e-05 2.31439517e-05
      -1.01781581e-04 5.20178619e-05 8.23505397e-05 -2.13113690e-05
      1.42685036e-04 9.78996832e-05 -3.02043063e-05 1.38087242e-04
      -1.07699307e-04 -2.38073873e-04 -6.32614974e-05 -1.32071102e-04
      -2.15025590e-04 -8.11238424e-05 -9.96361268e-06 -3.65206643e-06
      4.87355792e-05 -2.52976838e-06 3.20052368e-06 3.86544634e-05
      2.34101917e-05 2.55348532e-05 4.43819590e-05 4.84067186e-06
      2.79318010e-05 6.04398010e-05 1.22707957e-06 1.38848864e-05
      6.94794362e-05 -5.13313062e-05 1.36250737e-05 7.09944943e-05
      -1.01966631e-04 7.76424167e-06 1.75880559e-04 -4.90112106e-05
      2.84025168e-06 6.56737029e-05 -8.99714360e-06 1.84591463e-05
      4.79088376e-05 -2.52427817e-05 -1.48764866e-06 4.82960459e-05
      -1.95396187e-05 3.26787244e-06 3.08298513e-05 -7.51095922e-06
      1.74838133e-05 4.93923653e-05 -3.07862465e-05 -2.41208909e-06
      2.32616021e-05 -1.41690907e-04 -1.79389594e-04 -9.98311443e-05
      -2.09833364e-04 -2.96448794e-04 -1.48467429e-04 -1.39823765e-04
      -2.27395780e-04 -6.53888928e-05 1.25283041e-04 4.41429365e-05
      1.59393967e-04 8.52888261e-05 -4.12131558e-05 1.19442819e-04
      -8.08335244e-05 -2.28715347e-04 -5.99160812e-05 -1.36098053e-04
      -2.18255227e-04 -6.53615862e-05 -1.62371862e-06 -1.01280502e-05
      5.02059193e-05 8.76495392e-07 6.24105132e-06 5.03496667e-05
      3.45955004e-06 2.21013979e-05 3.67154244e-05 -1.62185988e-05
      2.59723674e-05 4.62525968e-05 -3.15064585e-06 1.94446984e-05
      6.27449917e-05 -9.19763188e-05 1.37383968e-05 8.67498165e-05
      -1.50737324e-04 -4.16910234e-06 2.08699974e-04 -6.28292837e-05
      -7.82502502e-06 6.71451562e-05 -2.45793235e-05 5.98173392e-06
      6.57448181e-05 -2.86061404e-05 -5.59017599e-06 5.24721436e-05
      -3.13015807e-05 5.41108375e-06 3.68666479e-05 -1.37346087e-05
      1.91565614e-05 3.21057196e-05 -1.12945490e-04 -1.37765659e-04
      -6.58093049e-05 -2.46463635e-04 -3.27777438e-04 -1.99229413e-04
      -2.67918542e-04 -3.58084042e-04 -2.09400663e-04 4.29067995e-06
      -4.98409554e-06 4.97087094e-05 1.65506397e-04 1.01064768e-04
      2.00252689e-04 8.52777957e-05 -4.83201620e-05 9.87593521e-05
      -1.19398741e-04 -2.46007752e-04 -1.10014706e-04 -1.32802539e-04
      -2.08685189e-04 -8.35180181e-05 -1.49370153e-05 -1.57067698e-05
      4.78006768e-05 -5.19368086e-06 -7.12250454e-08 4.69968618e-05
      3.33463709e-06 1.89041639e-05 3.52318275e-05 -1.58908679e-05
      1.35559403e-05 4.81295356e-05 -3.03101988e-05 1.68174065e-05
      6.53508177e-05 -1.40094096e-04 -2.91424681e-06 1.04242812e-04
      -1.91525076e-04 -1.07672549e-05 2.02323092e-04 -7.01065001e-05
      -1.17578093e-05 6.63744431e-05 -2.77026611e-05 -9.43216128e-06
      4.86074568e-05 -4.13084526e-05 -2.31828235e-05 3.44673317e-05
      -2.74427621e-05 -6.23550204e-06 2.45805186e-05 -7.78053363e-05
      -8.96898637e-05 -3.51594099e-05 -2.47317337e-04 -3.24570399e-04
      -1.64829180e-04 -2.43707793e-04 -3.33178119e-04 -1.92969266e-04
      -9.89396358e-05 -1.31958775e-04 -6.11689029e-05 4.30070977e-05
      5.43991919e-05 6.38079728e-05 1.77670838e-04 1.24591912e-04
      2.19253852e-04 9.86694213e-05 -2.91863671e-05 1.15892311e-04
      -1.04037310e-04 -2.30585836e-04 -8.12042999e-05 -1.51122149e-04
      -2.11176899e-04 -7.60758048e-05 -8.41586370e-06 -1.84368710e-05
      3.94118579e-05 -4.75013121e-06 -1.91355866e-06 3.55039956e-05
      -5.88562216e-06 1.61804419e-05 3.17115191e-05 -2.52554164e-05
      8.59992542e-06 4.49372928e-05 -2.99155745e-05 2.03982963e-05
      7.75893641e-05 -1.55798727e-04 4.55847248e-06 1.22041747e-04
      -1.88199774e-04 -1.61634434e-05 1.78652292e-04 -6.14203745e-05
      1.43621719e-05 7.09939341e-05 -2.77606978e-05 -1.70196802e-06
      3.72059585e-05 -2.99312578e-05 -1.24882217e-05 3.72067625e-05
      -5.62517707e-05 -6.95796480e-05 2.75521188e-06 -2.37902830e-04
      -3.13876983e-04 -1.67336664e-04 -2.68553325e-04 -3.61269747e-04
      -1.95421671e-04 -1.35606446e-04 -1.85889628e-04 -8.65482652e-05
      -3.55602351e-05 -4.79679547e-05 1.56707410e-05 7.36671864e-05
      7.53534332e-05 9.20179882e-05 1.93405795e-04 1.25831473e-04
      2.08125144e-04 9.50799003e-05 -2.85312944e-05 1.25776554e-04
      -1.05122446e-04 -2.38642984e-04 -9.15265628e-05 -1.38629504e-04
      -2.16738656e-04 -9.50926624e-05 -1.06732550e-05 -9.75588046e-06
      4.57471542e-05 -8.10301572e-06 6.35004335e-06 4.04493221e-05
      -1.34991797e-06 2.32385755e-05 4.24232530e-05 -1.71509637e-05
      1.89979128e-05 5.51636076e-05 -5.20774884e-05 1.19358603e-07
      5.56680134e-05 -1.37145602e-04 6.16119132e-06 1.28834858e-04
      -1.68707513e-04 -2.00430368e-05 1.48745501e-04 -5.12297629e-05
      3.18950879e-06 7.13711925e-05 -2.46275304e-05 -3.29542740e-06
      4.12947447e-05 -7.31547771e-05 -9.15066630e-05 -1.23999562e-05
      -2.20816946e-04 -3.04537360e-04 -1.35176218e-04 -2.48190423e-04
      -3.32703145e-04 -1.63646560e-04 -1.80850766e-04 -2.43301460e-04
      -1.08624823e-04 -2.84039306e-05 -4.85303281e-05 1.06450216e-05
      -8.13400857e-06 -1.47668379e-06 2.54304250e-05 7.95532251e-05
      6.34356329e-05 9.86639643e-05 1.86634046e-04 1.11819856e-04
      2.01058821e-04 1.06308500e-04 -3.06288566e-05 1.15342489e-04
      -9.37099394e-05 -2.38120789e-04 -9.95043447e-05 -1.31515830e-04
      -2.23204261e-04 -1.05356259e-04 -2.93293760e-05 -2.70340661e-05
      2.23117113e-05 -1.88387439e-05 -1.75861314e-05 3.00530883e-05
      -2.30529054e-06 1.84380715e-05 4.31758599e-05 -1.42595773e-05
      2.33517239e-05 5.89260053e-05 -3.10768155e-05 1.16233123e-05
      5.05775206e-05 -1.01643200e-04 1.51480199e-05 1.10207315e-04
      -1.08686145e-04 -9.48980596e-06 1.38159798e-04 -2.94855690e-05
      4.88436899e-06 7.31723776e-05 -2.38794928e-05 -3.94204335e-06
      4.56141061e-05 -2.20181304e-04 -2.85981514e-04 -1.23584075e-04
      -2.53119506e-04 -3.47520428e-04 -1.83399068e-04 -2.74162245e-04
      -3.43259657e-04 -2.07795922e-04 -2.66567251e-04 -3.66111257e-04
      -1.87578946e-04 -2.55541527e-04 -3.42076935e-04 -1.78621689e-04
      -2.47768330e-04 -3.42339015e-04 -1.86276331e-04 -1.47520666e-04
      -2.60623521e-04 -1.04794155e-04 9.87288659e-05 -2.26764587e-05
      1.07600819e-04 1.08649845e-04 -2.30476198e-05 1.12784626e-04
      -9.52045448e-05 -2.28889199e-04 -1.06621330e-04 -2.21912778e-04
      -3.27215123e-04 -1.67702485e-04 -2.13471270e-04 -3.04697256e-04
      -1.45587765e-04 -2.37668981e-04 -3.03021428e-04 -1.61905991e-04
      -2.45363281e-05 1.99205260e-06 2.11818315e-05 -6.65796165e-07
      2.55949617e-05 6.05883688e-05 -1.85134068e-05 2.00632476e-05
      4.69001970e-05 -5.81461463e-05 2.58278887e-05 8.65697002e-05
      -2.41082216e-05 -5.48969501e-06 1.00887446e-04 8.71351494e-06
      1.07784599e-05 7.24082347e-05 -6.29111128e-06 1.06719635e-05
      3.51402014e-05 -1.94496330e-04 -2.53590959e-04 -1.19916003e-04
      -2.23843745e-04 -3.24430177e-04 -1.59296644e-04 -2.45039380e-04
      -3.34038894e-04 -1.59882460e-04 -2.45935167e-04 -3.33837786e-04
      -1.58963594e-04 -2.14830012e-04 -3.03760840e-04 -1.50390988e-04
      -2.17424633e-04 -2.90432101e-04 -1.62454569e-04 -1.40459248e-04
      -2.31865386e-04 -9.92818168e-05 1.07805856e-04 -3.95600455e-06
      1.46291059e-04 1.24812083e-04 5.19937930e-06 1.57677510e-04
      -1.02674938e-04 -2.11815772e-04 -9.32967741e-05 -2.34447856e-04
      -3.30393610e-04 -1.99527931e-04 -2.19084875e-04 -3.26339359e-04
      -1.60324824e-04 -2.19451482e-04 -3.02800385e-04 -1.51188899e-04
      -1.66488571e-05 -1.07470296e-05 1.51790491e-05 -5.26372651e-06
      1.41688306e-05 3.83272964e-05 -3.45108720e-06 2.35149655e-05
      5.17372500e-05 -1.37753768e-05 3.26848094e-05 7.97476168e-05
      1.58708881e-05 1.08014792e-05 8.82634267e-05 2.42581900e-05
      1.75331625e-05 7.60821786e-05 1.40496495e-05 1.82948097e-05
      4.46983395e-05 -1.23433520e-05 -9.55343751e-08 2.33840365e-05
      -1.72838045e-05 -6.96067764e-06 1.40732200e-05 -3.47016321e-05
      -2.44945713e-05 2.57433840e-05 -3.80951860e-05 -3.16712685e-05
      1.59481533e-05 -1.48862000e-05 -2.61853129e-05 2.18999558e-05
      -1.09498842e-05 -4.00577574e-06 1.90978990e-05 4.39862670e-05
      5.78205327e-05 6.47114866e-05 2.00202834e-04 1.42813253e-04
      2.31803569e-04 1.18447104e-04 4.71318663e-06 1.42906720e-04
      -9.75969670e-05 -2.06537879e-04 -8.57872583e-05 -1.23608494e-04
      -1.93083644e-04 -1.01161961e-04 -3.81679965e-05 -6.02535110e-05
      -2.77326649e-07 -3.66755412e-05 -3.96613868e-05 8.68541974e-06
      -8.99333099e-06 3.97200984e-06 3.62881146e-05 7.54476923e-06
      1.60440140e-05 4.04468192e-05 4.01971693e-06 2.42754868e-05
      3.91352987e-05 2.95664381e-06 1.80435254e-05 5.35696745e-05
      2.92415643e-05 2.48201322e-05 8.33448430e-05 1.75225432e-05
      1.19327788e-05 5.57471249e-05 1.66883037e-05 1.00460984e-05
      3.78812401e-05 -2.32810235e-05 -3.86496276e-06 1.38922724e-05
      -1.04464498e-05 -3.33624439e-06 2.00484956e-05 -3.12447737e-05
      -2.72806010e-05 1.58613984e-05 -2.46656928e-05 -2.95513637e-05
      1.32606265e-05 -1.08648669e-06 -1.02908079e-05 2.25174845e-05
      7.59594377e-06 7.54684925e-06 2.51627625e-05 6.59908037e-05
      7.32257904e-05 8.39892600e-05 1.96425375e-04 1.32603658e-04
      2.01072209e-04 1.02967912e-04 -1.58997057e-06 1.57487055e-04
      -9.55896539e-05 -1.94327018e-04 -7.97252942e-05 -1.28407875e-04
      -1.79770926e-04 -9.09048249e-05 -6.88624323e-06 -2.06317127e-05
      2.31764425e-05 -2.76810151e-05 -1.05642030e-05 1.69252417e-05
      -4.30302134e-06 4.42641976e-06 2.08812999e-05 8.26359337e-06
      2.40908539e-05 4.35692782e-05 1.54705358e-05 1.33585063e-05
      3.95155075e-05 4.31946046e-06 1.28316633e-05 4.93155094e-05
      1.27388621e-05 1.85801237e-05 6.05713067e-05 1.07192409e-05
      2.31774920e-05 5.43315437e-05 1.80225572e-06 1.97875870e-05
      4.51590386e-05 -2.44388029e-05 6.76319019e-07 1.74438919e-05
      -1.21368803e-05 -1.23954906e-05 2.06463737e-05 -3.12020165e-06
      -9.53076324e-06 3.80125239e-05 7.81977815e-06 -1.19893666e-05
      2.09763421e-05 1.33922222e-05 -7.09445567e-06 2.83655281e-05
      3.54523690e-05 -3.22265805e-06 3.17923077e-05 6.22141524e-05
      4.71337335e-05 6.23739252e-05 1.97391360e-04 1.07477914e-04
      1.92504071e-04 1.30862667e-04 -1.02885824e-05 1.42242818e-04
      -9.15492565e-05 -2.09249454e-04 -8.16370739e-05 -1.29436245e-04
      -2.03317381e-04 -1.01031656e-04 -3.96787800e-06 -2.93906905e-05
      2.31829526e-05 -4.78369111e-06 -1.12938069e-05 1.93397464e-05
      1.91704257e-05 1.32920431e-05 2.63913080e-05 2.55371906e-05
      1.53117653e-05 3.73712210e-05 2.16926837e-05 2.20135007e-05
      4.55508452e-05 1.36087547e-05 2.03030995e-05 5.02707153e-05
      1.06913712e-05 2.54484839e-05 4.87225516e-05 5.59705597e-07
      1.30945218e-05 4.33942187e-05 4.83198437e-06 1.43885654e-05
      3.50516602e-05 -1.39137728e-06 1.76284593e-05 3.70643102e-05
      4.10287203e-06 1.47671126e-05 2.81141110e-05 2.29331545e-05
      1.91141571e-05 3.93646114e-05 2.92005170e-05 1.46912835e-05
      3.40858423e-05 2.65263425e-05 4.37401559e-06 3.62953469e-05
      3.46136840e-05 8.81049709e-06 2.88413758e-05 7.26046637e-05
      7.13457121e-05 6.25009197e-05 1.84498553e-04 1.64167912e-04
      1.83221768e-04 1.87483020e-04 1.49926855e-04 1.97940797e-04
      5.94659905e-05 3.01416239e-05 3.91442081e-05 -1.41820083e-05
      -1.75854948e-05 -4.48915125e-06 2.23767602e-05 8.44341321e-06
      3.83117003e-05 1.66116843e-05 8.41836663e-06 2.78444750e-05
      3.10442192e-05 1.87769347e-05 3.26665649e-05 2.25702261e-05
      1.11597219e-05 3.81958744e-05 1.08066197e-05 9.48552588e-06
      3.36145240e-05 2.98369196e-05 1.97077443e-05 4.51566339e-05
      2.26661723e-05 2.24115083e-05 3.58037505e-05 2.98912546e-05
      2.15974742e-05 4.04869061e-05 1.34808533e-05 1.03539642e-05
      4.21743789e-05 1.61479079e-06 1.17965956e-05 3.71090609e-05
      1.07213009e-05 7.91491493e-06 3.64425541e-05 1.39631202e-05
      2.06079694e-05 3.13653363e-05 -1.24309588e-06 3.73624448e-06
      2.29237921e-05 1.42269564e-05 1.33455560e-05 4.33039131e-05
      8.85355348e-06 9.79161814e-06 2.77560921e-05 2.99653584e-05
      3.19700302e-05 2.46520631e-05 2.18098812e-05 1.68372844e-05
      3.67830035e-05 4.12314148e-05 3.39397702e-05 5.50595432e-05
      2.69820812e-05 2.92621735e-05 1.61517146e-05 1.91880317e-05
      2.64857881e-05 2.91941469e-05 1.31506176e-05 1.83447883e-05
      4.32337365e-05 -2.93685753e-06 1.46324574e-05 3.59642399e-05
      2.39934579e-05 2.85056758e-05 3.92140209e-05 2.31742761e-05
      1.22396023e-05 3.42431995e-05 2.31002923e-05 1.69914074e-05
      3.05492831e-05 3.25904148e-05 2.20077891e-05 3.91042377e-05
      3.82662292e-05 2.64389619e-05 5.29953322e-05 3.63691615e-05
      2.67507476e-05 5.14264793e-05 3.26540903e-05 2.38822213e-05
      3.90487039e-05 2.43669165e-05 2.63101665e-05 3.31772353e-05
      -8.61951230e-06 7.95998221e-06 1.82629319e-05 -7.97819393e-06
      4.15049180e-06 2.47653952e-05 -9.22445815e-06 2.36132087e-06
      2.97452480e-05 -2.98275631e-06 6.99009490e-07 2.53050584e-05
      -3.70290763e-06 3.95349753e-06 1.71544016e-05 2.28323897e-05
      1.59013289e-05 3.15510333e-05 2.70000919e-06 3.67089683e-06
      2.32286111e-05 2.57079191e-05 1.74574343e-05 4.18782765e-05
      2.87278981e-05 3.30414769e-05 5.24431307e-05 9.06921173e-07
      3.68385645e-06 1.81331197e-05 -1.19272072e-05 5.33156572e-06
      1.78875489e-05 -9.20824732e-06 8.05087075e-06 1.97933823e-05
      1.10709675e-06 9.79203105e-06 1.58464263e-05 -6.38176800e-07
      8.18359331e-06 3.35261466e-05 2.48571523e-05 3.40816732e-05
      6.34065145e-05 5.11831895e-05 4.68103754e-05 7.59719187e-05</_>
    <_>
      9.47290062e-07 6.94251003e-06 6.49351159e-06 1.19034594e-05
      1.49135485e-05 2.29095458e-05 1.61972766e-05 1.44395926e-05
      2.07092271e-05 9.84066082e-06 1.52749435e-05 3.00202737e-05
      1.23211357e-05 1.15107414e-05 2.21304745e-05 1.86777506e-05
      2.22986928e-05 2.77892559e-05 2.33329629e-05 2.48911056e-05
      2.92661607e-05 1.56363403e-05 1.17601985e-05 8.35739138e-06
      1.01707337e-05 1.46020693e-05 9.66607695e-06 1.26512086e-05
      1.70262629e-05 1.98681337e-05 1.37980396e-05 1.32371033e-05
      1.26761661e-05 -4.59955436e-06 6.63103037e-06 9.47290027e-06
      2.36636588e-05 1.74439392e-05 1.18414373e-05 1.05634517e-05
      9.30468195e-06 1.10873234e-05 2.32459824e-05 2.57514148e-05
      2.73095575e-05 1.65836300e-05 2.24918695e-05 2.63929669e-05
      2.05723318e-05 1.87027090e-05 3.69877416e-05 2.32773054e-05
      1.91203853e-05 3.21892694e-05 -5.62805837e-08 2.00113936e-05
      3.02384087e-05 1.68218776e-07 8.50065317e-06 2.55019586e-05
      9.25476616e-06 1.03702750e-05 2.24106316e-05 1.77304610e-05
      1.73940243e-05 2.65055296e-05 1.12363268e-05 1.18471789e-05
      1.56363403e-05 1.77304610e-05 2.41683156e-05 2.79574760e-05
      2.13264448e-05 1.43276538e-05 2.34954405e-05 2.79325177e-05
      2.77080180e-05 2.69539050e-05 1.69200666e-05 3.36162593e-05
      3.22762498e-05 8.66887149e-06 1.70575859e-05 2.04290700e-05
      2.41932721e-05 1.89521670e-05 2.48041251e-05 1.37110592e-05
      1.29569462e-05 2.39380734e-05 2.81825978e-05 2.85689512e-05
      2.80080130e-05 3.44829314e-05 2.68419662e-05 3.84089872e-05
      2.18253590e-05 1.83662705e-05 2.20185357e-05 8.72515193e-06
      1.38229980e-05 2.63935908e-05 9.95259870e-06 1.35735409e-05
      3.25819856e-05 1.39099784e-05 1.58045586e-05 2.16565168e-05
      2.15196214e-05 1.26262503e-05 3.17466365e-05 2.13264448e-05
      1.33803642e-05 2.56701769e-05 1.22648553e-05 1.39912163e-05
      2.16565168e-05 2.11582264e-05 1.56926199e-05 2.12951218e-05
      8.00173802e-06 6.88622958e-06 1.17346181e-05 2.43672330e-05
      1.65586716e-05 2.33579212e-05 7.58406259e-06 6.54979203e-06
      5.37800270e-06 1.67268900e-05 2.15196214e-05 2.64242899e-05
      1.06504322e-05 1.22085748e-05 1.87276673e-05 1.37417592e-05
      2.37755976e-05 1.23454702e-05 9.61616115e-06 1.71695247e-05
      1.91760428e-05 1.46078110e-05 1.58045586e-05 7.02312536e-06
      2.52275440e-05 8.02669638e-06 2.17684556e-05 8.40181820e-05
      8.34572420e-05 8.53518213e-05 1.37260722e-04 1.36643503e-04
      1.31956971e-04 7.96598470e-05 7.29661697e-05 7.63939388e-05
      4.81121315e-05 2.55576160e-05 3.28058632e-05 1.40781967e-05
      1.92323223e-05 2.51405636e-05 1.86777506e-05 1.62222350e-05
      1.68330862e-05 1.18471789e-05 1.48572681e-05 2.26600878e-05
      2.12701634e-05 2.12701634e-05 2.91849228e-05 1.56113820e-05
      1.79236376e-05 2.68976237e-05 1.59727770e-05 2.09337268e-05
      3.14159406e-05 2.82939127e-05 1.75059613e-05 2.82939127e-05
      1.46640914e-05 1.35485825e-05 6.66173037e-06 1.15414414e-05
      1.51067252e-05 8.21987305e-06 6.05087780e-06 1.03139946e-05
      9.14220527e-06 -5.01723025e-06 -2.28729823e-06 2.48834169e-07
      2.51117467e-06 2.95380846e-06 6.74296871e-06 -7.26430881e-05
      -5.69504664e-05 -3.97246622e-05 -2.51438702e-04 -2.01151212e-04
      -1.63465011e-04 -2.57128180e-04 -2.16263681e-04 -1.72501022e-04
      -1.59867152e-04 -1.41444601e-04 -9.39177480e-05 -1.03833285e-04
      -6.76553100e-05 -2.88536030e-05 -2.79574760e-05 -5.04793024e-06
      3.29996619e-05 -1.17933065e-04 -1.03524173e-04 -7.72118219e-05
      -1.70271247e-04 -1.55806076e-04 -1.22326717e-04 -2.26740769e-04
      -1.83675947e-04 -1.49947125e-04 -1.32073401e-04 -1.18362346e-04
      -8.72822202e-05 -1.34059446e-05 -1.05985123e-06 3.05114753e-07
      8.78080937e-06 1.29626878e-05 1.23205127e-05 1.86214711e-05
      1.07316700e-05 1.37974166e-05 2.38625780e-05 2.41120342e-05
      2.45041301e-05 2.37506392e-05 1.59727770e-05 2.17997786e-05
      1.61409953e-05 1.70070471e-05 1.33938522e-06 1.75706111e-06
      1.52749435e-05 -1.68841751e-07 5.56576119e-08 4.43071258e-06
      2.48834169e-07 -7.32948638e-06 2.17473712e-06 4.10001712e-06
      -7.94033895e-06 -4.84901148e-06 -6.11475457e-07 -7.04120685e-05
      -5.48313874e-05 -4.59130570e-05 -2.36188716e-04 -1.95492423e-04
      -1.60984535e-04 -1.42497476e-04 -1.17886520e-04 -8.37963089e-05
      -5.86135611e-05 -4.19486933e-05 -4.79210803e-06 -1.64409921e-05
      -1.27950925e-05 2.39438159e-05 -4.03924014e-06 1.30433036e-05
      4.56003327e-05 -7.26263606e-05 -6.20936116e-05 -1.51526474e-05
      -1.75649868e-04 -1.52210094e-04 -1.19846241e-04 -2.17093286e-04
      -1.84816410e-04 -1.57332266e-04 -1.59308096e-04 -1.19895529e-04
      -1.05679814e-04 -2.94912825e-05 -1.71451902e-05 -2.85190345e-05
      6.30033492e-06 1.40781967e-05 1.34360216e-05 5.18482602e-06
      2.95380846e-06 7.55273959e-06 2.37506392e-05 1.17908985e-05
      2.53957623e-05 2.68170079e-05 2.00983741e-05 1.41901355e-05
      7.75228091e-06 8.53135225e-06 -9.97828579e-07 7.16638669e-06
      1.36605213e-05 -8.05289983e-06 9.19848571e-06 5.18482602e-06
      -1.11499694e-05 -1.13738461e-05 -5.18544903e-06 -2.04047356e-05
      -1.03395751e-05 -1.33247067e-05 -1.61109183e-05 -6.33320378e-05
      -6.06583890e-05 -6.81867969e-05 -2.36550113e-04 -1.89191473e-04
      -1.85402314e-04 -1.23788399e-04 -8.11975260e-05 -6.24385357e-05
      6.12244476e-05 8.66144619e-05 1.05373452e-04 1.92374893e-04
      1.95659406e-04 1.79823517e-04 2.19079971e-04 2.12692030e-04
      2.09121004e-04 1.51700457e-04 1.36868141e-04 1.38594507e-04
      4.50138141e-05 2.09267382e-05 2.45227220e-05 -2.02365172e-05
      -9.36732704e-06 -7.05507136e-06 -5.09846859e-06 4.17052945e-07
      -8.66674668e-07 -9.03088949e-06 -6.35723836e-06 -1.05391164e-05
      2.76063179e-06 -3.90172136e-06 -1.47459532e-05 1.63904533e-05
      1.39099784e-05 -2.81753546e-06 1.65586716e-05 2.26351294e-05
      2.13821022e-05 6.35661536e-06 1.45521535e-05 -1.75194214e-06
      1.04566325e-05 2.39861356e-06 -5.61906127e-05 8.58763269e-06
      1.89458012e-06 -3.58172001e-05 1.31309071e-05 5.35304480e-06
      -1.32940067e-05 -1.07879514e-05 -4.59955436e-06 -2.16321823e-05
      -1.24023745e-05 -8.19553770e-06 -2.24675350e-05 -6.17988553e-05
      -7.52105407e-05 -7.52105407e-05 -2.20103379e-04 -1.75811103e-04
      -1.61595395e-04 -1.18603566e-04 -9.79499964e-05 -8.98107392e-05
      3.10730752e-06 1.49237867e-05 3.21495900e-05 1.54403417e-04
      1.44419493e-04 1.26439583e-04 1.90424660e-04 1.94575216e-04
      1.93484666e-04 1.52286346e-04 1.47824307e-04 1.44839185e-04
      4.93888692e-05 2.56382318e-05 1.82780459e-05 -4.65583480e-06
      -1.37518953e-07 -8.10394056e-07 3.70792191e-06 3.81986001e-06
      4.26249380e-06 -1.52755674e-05 -1.33809872e-05 -1.55000671e-05
      -1.78264190e-06 -8.35351841e-07 -1.60546388e-05 1.01208179e-05
      1.31309071e-05 -8.91895161e-06 9.95259870e-06 7.47212425e-06
      -1.18727603e-05 1.14295035e-05 5.77072069e-06 -2.52780810e-05
      -1.24029975e-05 -2.86002742e-05 -1.41297467e-04 9.62190370e-06
      -3.05737728e-07 -6.67291024e-05 -7.44142426e-06 -8.97460905e-06
      -5.15967986e-05 -2.31225613e-06 -3.31582669e-06 -3.72128634e-05
      -1.55806811e-05 -1.33247067e-05 -2.86559316e-05 -7.08854059e-05
      -7.36773582e-05 -6.89095832e-05 -2.61833920e-04 -2.16594373e-04
      -1.98028560e-04 -2.13023348e-04 -1.71741165e-04 -1.45983387e-04
      -1.10691304e-04 -8.26775504e-05 -7.86638848e-05 6.87432330e-05
      7.43150376e-05 6.03487788e-05 1.76938091e-04 1.82035947e-04
      1.79998096e-04 1.45929735e-04 1.29146560e-04 1.22733662e-04
      4.29196953e-05 1.89758775e-05 2.24036430e-05 -8.25181814e-06
      4.99164935e-06 -1.25456354e-05 -9.31104660e-06 -1.06760126e-05
      -1.44152573e-05 -5.43490614e-06 -8.08359982e-06 -1.96256642e-05
      -6.67133065e-07 9.00530904e-06 -8.27677650e-06 8.39445693e-06
      1.06504322e-05 -1.68899896e-05 1.83975935e-05 1.11938199e-07
      -4.66358506e-05 1.11493464e-05 -9.78500339e-06 -7.89683763e-05
      2.29709440e-05 -9.84128383e-06 -1.66331840e-04 4.13133967e-06
      -4.68079270e-06 -1.05867250e-04 -6.60607247e-06 -2.59509561e-05
      -8.37111947e-05 -2.34704821e-05 -1.46333914e-05 -5.28242454e-05
      -1.51630056e-05 -1.08442318e-05 -4.99823764e-05 -9.74222567e-05
      -9.31904578e-05 -8.72508972e-05 -2.63367110e-04 -2.18295769e-04
      -2.00091352e-04 -2.24315954e-04 -1.85570520e-04 -1.86125093e-04
      -2.30641876e-04 -2.02684387e-04 -1.68145183e-04 -1.71265332e-04
      -1.16994888e-04 -9.38857993e-05 -9.82855363e-06 -1.38735359e-05
      1.91011695e-05 -4.15347531e-05 -4.32361558e-05 -3.37319325e-05
      -5.69574549e-05 -5.49503129e-05 -5.28875134e-05 -1.83892246e-06
      -5.01723025e-06 -1.05985123e-06 -9.14282828e-06 -9.14282828e-06
      -2.04917160e-05 -3.05737728e-07 8.94902860e-06 -1.44964961e-05
      1.01208179e-05 7.47212425e-06 -1.59983574e-05 3.62668357e-06
      1.32991254e-05 -1.07572514e-05 1.43839343e-05 8.00173802e-06
      -4.15066825e-05 6.18839658e-06 -1.07322930e-05 -1.13170528e-04
      3.09644633e-06 -1.85101562e-05 -2.03600357e-04 -1.69149480e-05
      -1.18727603e-05 -1.41490644e-04 -9.67244250e-06 -2.29408688e-05
      -8.37674743e-05 -5.29614113e-07 -7.44142426e-06 -5.58906140e-05
      -2.90173266e-05 -1.78679802e-05 -6.94954797e-05 -1.01018239e-04
      -9.88492466e-05 -1.04115308e-04 -2.31757382e-04 -2.02964555e-04
      -1.92537991e-04 -2.22003699e-04 -2.03132775e-04 -1.81918265e-04
      -2.35577856e-04 -1.96664216e-04 -1.66306883e-04 -1.62178796e-04
      -1.18528071e-04 -1.17942182e-04 -1.43155467e-05 1.71816318e-05
      2.60999605e-05 -2.36667729e-05 -8.92144362e-06 5.31657207e-08
      -1.72919943e-04 -1.58647948e-04 -1.43148500e-04 -1.99618022e-04
      -1.76926609e-04 -1.68955579e-04 -6.81554739e-05 -7.02745529e-05
      -6.33070813e-05 -1.22091978e-05 -7.49770516e-06 -1.54437857e-05
      -1.61442313e-06 -5.79630159e-06 -3.28627684e-05 3.20900767e-06
      1.13482647e-05 -4.34435515e-06 1.40781967e-05 7.58406259e-06
      -3.40345578e-05 1.44958731e-05 1.58884234e-06 -1.06813917e-04
      1.16284218e-05 -1.58614621e-05 -1.98857539e-04 -5.17970693e-06
      -1.63910754e-05 -1.40736534e-04 -1.30439266e-05 -2.97151601e-05
      -1.00239165e-04 -2.48354481e-05 -2.43058348e-05 -7.46496080e-05
      -2.44177718e-05 -2.44740531e-05 -6.87413631e-05 -3.22768719e-05
      -2.55895611e-05 -3.10801261e-05 -3.24450921e-05 -2.80700369e-05
      -4.55203408e-05 -4.10890061e-05 -2.97714396e-05 -4.00297758e-05
      -2.62873946e-05 -1.52192861e-05 -2.63436759e-05 1.24349426e-05
      2.91874148e-05 2.67069390e-05 4.24660793e-05 5.31414662e-05
      5.73483048e-05 -3.60998492e-05 -1.96531146e-05 -8.61570607e-06
      -1.71361797e-04 -1.61296644e-04 -1.48028208e-04 -2.03045784e-04
      -1.79407085e-04 -1.60648095e-04 -2.05220524e-04 -1.83532684e-04
      -1.59532588e-04 -3.79669764e-05 -3.01891159e-05 -3.70196867e-05
      -7.27320548e-06 -2.20031779e-06 -2.36080014e-05 -4.98914289e-07
      3.92095160e-07 -2.24924916e-05 5.80204369e-06 -2.28155614e-06
      -4.01922553e-05 1.33803642e-05 -5.60312492e-06 -1.06060426e-04
      1.29121499e-05 -9.50484628e-06 -1.60666692e-04 3.54544522e-06
      -4.59955436e-06 -1.11439054e-04 -2.84187013e-06 -1.49698290e-05
      -9.81200865e-05 -1.42719964e-05 -1.57489012e-05 -7.56531736e-05
      1.69406589e-21 -7.77786227e-06 -6.66785636e-05 -2.83194931e-05
      -1.89834882e-05 -3.67951870e-05 -2.82632136e-05 -1.86470515e-05
      -3.20836953e-05 1.11550878e-06 -1.42124657e-06 -1.22091978e-05
      -8.78143237e-06 -1.67524704e-05 -2.82945366e-05 3.83296174e-05
      4.36832852e-05 2.98289669e-05 1.97984380e-04 1.87308367e-04
      1.68044731e-04 1.18359232e-04 1.13984177e-04 9.36050201e-05
      -1.38243835e-04 -1.37489726e-04 -1.21933997e-04 -1.85234094e-04
      -1.71629232e-04 -1.31294335e-04 -2.23730065e-04 -1.96913054e-04
      -1.71797437e-04 -9.63937273e-05 -7.77159730e-05 -7.42882112e-05
      -1.84788332e-05 -1.35741639e-05 -2.87371695e-05 -8.35351841e-07
      8.78080937e-06 -1.03958555e-05 5.40932524e-06 1.05384943e-05
      -3.02703538e-05 6.82994914e-06 6.71801081e-06 -8.01344286e-05
      -1.06819122e-07 -4.73707314e-06 -1.34772010e-04 -3.64652215e-06
      -3.48404546e-06 -8.57938358e-05 1.45194645e-06 -1.36861017e-05
      -6.46407279e-05 -1.20409786e-05 -1.71138672e-05 -6.98261720e-05
      -7.02374837e-06 -1.68644092e-05 -4.27034283e-05 -3.34078436e-06
      -8.80639072e-06 -3.11613621e-05 -9.69739995e-06 -8.80639072e-06
      -1.44651731e-05 -5.90823993e-06 -9.72872294e-06 -2.28289300e-05
      -1.83892246e-06 -1.36496601e-06 -9.14282828e-06 5.16543259e-05
      5.53065911e-05 4.31536719e-05 1.74819012e-04 1.76520422e-04
      1.70107523e-04 1.57553659e-04 1.42752047e-04 1.23544683e-04
      -8.88473514e-05 -1.00414371e-04 -9.20506136e-05 -2.20190355e-04
      -1.90724648e-04 -1.70264262e-04 -2.10461629e-04 -1.88605569e-04
      -1.75225214e-04 -1.09605870e-04 -9.81763660e-05 -1.00239165e-04
      -2.62004141e-05 -1.31564875e-05 -2.96844592e-05 2.34295590e-06
      5.71444025e-06 3.04078867e-06 -3.42776480e-06 -1.95086068e-06
      -1.62478154e-05 2.86866307e-05 2.02665942e-05 -2.61383921e-05
      2.51117467e-06 -7.94033895e-06 -6.20982246e-05 2.20543689e-06
      -6.74359171e-06 -5.42397502e-05 5.40932524e-06 -6.66235337e-06
      -4.22294725e-05 -1.02852846e-06 -4.26311681e-06 -3.93006194e-05
      -1.31564875e-05 -2.35830430e-05 -3.96933392e-05 -1.49391299e-05
      -2.26607117e-05 -3.42027743e-05 -1.97625595e-05 -2.62566955e-05
      -4.26784718e-05 -4.59955436e-06 -1.37423822e-05 -3.45392145e-05
      -2.34148247e-05 -1.78679802e-05 -2.84877115e-05 6.07159163e-05
      5.48326316e-05 2.72365542e-05 1.99211834e-04 1.79112831e-04
      1.79194074e-04 1.51059518e-04 1.30599132e-04 1.10999048e-04
      -1.26951229e-04 -1.28820844e-04 -1.23884849e-04 -1.97249494e-04
      -1.69485182e-04 -1.66250597e-04 -1.87688987e-04 -1.75923036e-04
      -1.52870241e-04 -9.23800690e-05 -7.58213937e-05 -6.20233550e-05
      -2.54213428e-05 -1.06760126e-05 -2.45552910e-05 4.29381635e-06
      1.58884234e-06 7.39088591e-06 4.10064013e-06 1.39566578e-06
      -9.47352328e-06 1.84845740e-05 1.47760302e-05 3.60172567e-06
      2.22737344e-05 7.44716635e-06 -1.00843763e-05 1.29371074e-05
      -1.92016091e-06 -2.66436709e-05 5.10358768e-06 4.99164935e-06
      -2.72039852e-05 -2.19372978e-05 -2.18816404e-05 -4.69972438e-05
      -2.48917295e-05 -2.24675350e-05 -3.95251191e-05 -1.53063418e-04
      -1.23348247e-04 -1.36953124e-04 -1.65689664e-04 -1.42275458e-04
      -1.29175256e-04 -2.33022638e-05 -1.67524704e-05 -3.07750088e-05
      -2.51974670e-05 -1.88715512e-05 -3.93319424e-05 3.45717817e-05
      4.27359955e-05 4.39077849e-05 1.78726477e-04 1.74906003e-04
      1.79169117e-04 1.66124610e-05 1.53287328e-05 2.82607216e-05
      -1.47274099e-04 -1.56503913e-04 -1.42842764e-04 -1.92594278e-04
      -1.67060993e-04 -1.50557986e-04 -1.84928358e-04 -1.73442560e-04
      -1.34472648e-04 -4.90600432e-05 -2.48917295e-05 -3.22519154e-05
      -1.16482606e-05 -1.61665757e-05 -7.41072472e-06 5.04793024e-06
      3.70792191e-06 1.56983624e-05 -2.06279879e-06 5.29614113e-07
      -2.20031779e-06 1.14857839e-05 8.41941437e-06 3.68296401e-06
      6.02017781e-06 -8.35351841e-07 -1.59427000e-05 1.92073658e-05
      4.46203512e-06 -2.21310966e-05 1.12363268e-05 4.04435923e-06
      -1.75315417e-05 -3.67722214e-06 -8.02731938e-06 -3.77424767e-05
      -1.25705928e-05 -1.46896728e-05 -3.89955057e-05 -1.25273538e-04
      -1.19752272e-04 -1.25579274e-04 -2.18152520e-04 -2.18570189e-04
      -2.07700999e-04 -2.12132334e-04 -1.80883988e-04 -1.63240518e-04
      -1.73498847e-04 -1.69373248e-04 -1.74614353e-04 -1.44367092e-04
      -1.22429788e-04 -1.12701069e-04 -8.96250185e-06 1.06318394e-05
      4.10141329e-05 -1.54149548e-05 -2.02383853e-05 -1.29651798e-05
      -1.45547732e-04 -1.42649587e-04 -1.28570769e-04 -1.71604275e-04
      -1.52677065e-04 -1.33693567e-04 -7.46496080e-05 -5.82028733e-05
      -5.13473424e-05 -8.22049606e-06 -1.24023745e-05 -1.54687441e-05
      -1.42969539e-05 -1.71138672e-05 -8.18979606e-06 9.17352827e-06
      7.47212425e-06 1.46947914e-05 5.29614113e-07 5.07288769e-06
      6.46855369e-06 1.07067126e-05 8.05801938e-06 9.45368447e-06
      -2.31225613e-06 8.41941437e-06 -5.55194902e-07 -5.21040693e-06
      1.22744700e-06 -2.12957457e-05 6.16594548e-07 3.87614045e-06
      -1.52192861e-05 3.85118301e-06 -5.79630159e-06 -1.80611569e-05
      -1.19846982e-05 -1.54687441e-05 -3.30309849e-05 -8.17603359e-05
      -7.16395152e-05 -7.85820230e-05 -1.70264262e-04 -1.64798650e-04
      -1.34834030e-04 -1.82921838e-04 -1.73274355e-04 -1.61875549e-04
      -1.71716209e-04 -1.54876761e-04 -1.57693663e-04 -1.18665594e-04
      -1.03583821e-04 -8.91436066e-05 1.28065767e-05 1.69884552e-05
      4.84862576e-05 2.87070111e-06 1.48304416e-05 2.99934472e-05
      -6.46227563e-05 -6.21422805e-05 -5.45575967e-05 -1.73383651e-05
      -1.82856566e-05 -1.52192861e-05 -4.59955436e-06 -6.49413460e-06
      -3.65226424e-06 -8.55693361e-06 -7.44142426e-06 -4.43133558e-06
      -2.12957457e-05 -1.65842521e-05 -1.21222174e-05 1.06504322e-05
      7.80856226e-06 1.48630106e-05 1.92636453e-05 1.30189683e-05
      1.82600761e-05 9.59120371e-06 6.94251003e-06 1.44146343e-05
      7.88980014e-06 1.92073658e-05 1.95438024e-05 8.33817558e-06
      1.15977218e-05 -1.08480901e-06 7.64034303e-06 -2.36853657e-06
      -2.89815080e-06 4.21257801e-06 1.37168017e-05 4.29381635e-06
      8.64391404e-06 2.67939345e-06 -8.38871438e-06 8.66887149e-06
      1.46640914e-05 2.23101756e-06 1.33938522e-06 3.62668357e-06
      -1.65842521e-05 6.71801081e-06 -4.98914289e-07 -1.20409786e-05
      -1.86962234e-06 -6.49413460e-06 -1.27388121e-05 5.73438083e-05
      5.48070529e-05 3.88649751e-05 1.14624345e-04 1.02053753e-04
      1.02303209e-04 1.06396241e-04 8.15607928e-05 8.70513541e-05
      2.41619491e-05 1.33739986e-05 1.61380012e-06 7.13568670e-06
      7.13568670e-06 4.29381635e-06 8.83709072e-06 -2.89815080e-06
      5.77072069e-06 5.29614113e-07 1.81334178e-06 3.70792191e-06
      9.78438038e-06 6.52483413e-06 -5.62808282e-06 1.04822129e-05
      8.75585192e-06 1.60597574e-05 9.00530904e-06 1.98156044e-06
      5.15986812e-06 1.08998893e-05 7.22266714e-06 8.16995725e-06
      1.90391474e-05 1.56113820e-05 9.87136082e-06 1.86214711e-05
      8.25119514e-06 1.28814499e-05 1.75706111e-06 3.70792191e-06
      -1.20409786e-05 1.16540023e-05 1.35485825e-05 1.39566578e-06
      1.16540023e-05 1.55301441e-05 1.01208179e-05 8.30747649e-06
      1.31309071e-05 -1.36496601e-06 1.51687482e-05 7.39088591e-06
      -1.58301391e-05 1.11550880e-05 1.21023786e-05 9.03600903e-06
      1.43333964e-05 1.43333964e-05 -7.17671639e-07 1.25200540e-05
      1.13482647e-05 7.47786635e-06 1.76492231e-05 1.19341594e-05
      1.21023786e-05 2.36131200e-05 1.65893707e-05 1.46385109e-05
      1.45265731e-05 1.81225569e-05 8.59337524e-06 1.48323106e-05
      1.06504322e-05 2.84761222e-06 1.74810048e-05 1.82600761e-05
      2.46166910e-05 3.93242135e-06 9.00530904e-06 7.05444836e-06
      2.13264448e-05 1.61972766e-05 1.23518357e-05 1.48323106e-05
      1.02890363e-05 1.16847023e-05 1.46640914e-05 1.02890363e-05
      1.98802409e-05 1.41594355e-05 2.03228738e-05 1.34673446e-05
      5.35304480e-06 7.11072880e-06 1.62279757e-05 2.04910921e-05
      4.29381635e-06 1.05691934e-05 1.15727644e-05 -2.56171325e-06
      -1.46276498e-05 -1.40474967e-05 -1.12056268e-05 -3.21086554e-05
      1.44709147e-05 1.11550880e-05 -1.32626838e-05 -3.14760791e-06
      3.54544522e-06 -4.34824979e-05 2.77700401e-05 1.66206937e-05
      4.18762056e-06 2.09145110e-05 1.77362035e-05 -1.95323191e-05
      5.13491068e-06 4.01940179e-06 -3.22148517e-05 3.02255576e-05
      2.22794770e-05 1.32799096e-05 2.36444430e-05 1.89329512e-05
      -1.66904483e-05 2.16373010e-05 1.50875094e-05 1.04001253e-06
      3.32094578e-06 8.96751544e-07 -1.36240787e-05 -1.28200500e-05
      -2.81512748e-05 -6.43042877e-05 1.29940108e-05 1.69513896e-05
      1.79856597e-05 2.20805578e-05 1.52499861e-05 2.43115755e-05
      1.67019334e-05 9.87136082e-06 2.05780725e-05 9.34174659e-06
      5.57754402e-06 1.07374126e-05 1.82600761e-05 1.15977218e-05
      2.89105064e-05 1.78673563e-05 2.21611735e-05 2.86860086e-05</_>
    <_>
      3.04483401e-05 2.42911556e-05 5.10173304e-05 3.50904011e-05
      2.12212763e-05 5.25637370e-05 1.97788031e-05 6.93448283e-06
      5.34533210e-05 2.09328737e-05 1.11699028e-05 4.79216760e-05
      1.07720534e-05 1.06611132e-07 3.81546088e-05 9.86958275e-06
      -4.27096302e-06 2.95416139e-05 2.44065595e-05 1.55460584e-05
      3.46923916e-05 3.00844549e-05 2.25017793e-05 3.30222319e-05
      3.64987536e-05 2.03030831e-05 2.85153910e-05 3.27536472e-05
      3.34030992e-05 2.92757068e-05 1.91389590e-05 3.43069878e-05
      4.71470521e-05 -1.02974627e-05 1.00029438e-05 9.35065600e-06
      8.61567059e-06 1.56739061e-05 7.31251384e-06 2.94405163e-05
      3.81744285e-05 4.21513141e-05 4.61563723e-05 5.97710605e-05
      5.97682229e-05 1.95298780e-05 4.61365526e-05 3.08221170e-05
      1.61983462e-05 1.54053232e-05 3.58321595e-05 2.82694618e-05
      1.67015496e-05 5.52499114e-05 1.65737019e-05 1.94020304e-05
      4.13638045e-05 1.52972934e-05 1.18023718e-05 3.63422914e-05
      1.28414831e-05 1.94177537e-05 4.38228963e-05 1.37439538e-05
      9.13317945e-06 4.27837840e-05 1.75999248e-05 1.86431316e-05
      4.09857748e-05 3.73985458e-05 2.17244797e-05 5.89849660e-05
      2.69861230e-05 2.18523273e-05 3.88054796e-05 2.35055068e-05
      6.41146153e-06 2.29851630e-05 5.88434568e-06 -4.38182860e-06
      1.70726489e-05 5.78182926e-06 -3.47793980e-06 1.88790091e-05
      4.10000794e-05 1.10406372e-05 3.53248615e-05 6.41459555e-05
      5.15532374e-05 7.46833903e-05 1.07089196e-04 1.00529905e-04
      1.19029464e-04 4.38326642e-05 4.51076521e-05 5.47440322e-05
      3.90783171e-05 3.79228259e-05 4.79543814e-05 1.20866798e-05
      1.63206823e-05 3.29072718e-05 9.52693426e-06 1.67144372e-05
      2.95729023e-05 4.87794023e-06 1.25884644e-05 1.45129043e-05
      5.92256492e-06 9.90638364e-06 3.05848189e-05 7.45199122e-06
      2.05704073e-05 4.15004470e-05 1.27498890e-06 2.28771332e-05
      4.70192026e-05 -8.85488248e-07 2.28771332e-05 4.03404156e-05
      3.23885033e-05 -6.55786971e-06 3.85483654e-05 3.72747927e-05
      1.31169982e-05 4.67676036e-05 1.20682789e-05 7.07663685e-06
      4.03349040e-05 1.25898823e-05 1.24790167e-05 3.08249510e-05
      2.50183149e-07 1.06795878e-05 1.81043852e-05 -1.96961046e-05
      -1.73709795e-05 -1.63604782e-05 -5.80857886e-06 -1.60747531e-05
      3.05869321e-06 -4.32071247e-05 -5.24668940e-05 -2.89558739e-05
      -2.01905150e-05 -5.55537554e-05 -3.70527778e-05 8.43164380e-05
      5.74553305e-05 7.09476808e-05 2.04128883e-04 1.73534136e-04
      1.70816507e-04 9.04442495e-05 7.43694982e-05 7.28202504e-05
      2.36033247e-05 2.34924591e-05 2.42656643e-05 1.83717111e-05
      2.24833784e-05 3.88183653e-05 1.32536388e-05 2.39217570e-05
      3.48529466e-05 1.30916669e-05 2.02989868e-05 2.22234285e-05
      2.04282533e-05 2.89318014e-05 2.36489195e-05 1.94163349e-05
      3.11106778e-05 3.52139978e-05 2.03173877e-05 2.96851867e-05
      3.28943825e-05 1.35093351e-05 2.40128047e-05 2.87753410e-05
      4.72879474e-05 -6.70002373e-06 5.12689294e-05 2.00304039e-05
      -1.12068637e-05 3.19735118e-05 -2.48270644e-05 -4.35824804e-05
      -1.14782843e-05 -6.59776488e-05 -7.07176878e-05 -6.54901669e-05
      -1.48277395e-04 -1.46460981e-04 -1.47139042e-04 -2.12559549e-04
      -2.20523085e-04 -2.04722601e-04 -1.99930029e-04 -2.03767602e-04
      -1.91571467e-04 -1.51196771e-04 -1.64834113e-04 -1.57518763e-04
      6.49299764e-05 2.10687012e-05 1.48902809e-05 1.76701986e-04
      1.29648499e-04 1.14211733e-04 2.09468359e-04 1.67953898e-04
      1.45565500e-04 9.58307428e-05 5.57362582e-05 4.53081120e-05
      8.80498010e-06 -1.52290622e-05 -1.25285815e-05 -1.47785267e-05
      -1.62169072e-05 -2.06079699e-06 2.09641621e-05 3.43143620e-05
      3.99853234e-05 1.06611878e-05 2.22262643e-05 1.83688753e-05
      1.72231521e-05 3.60153331e-06 6.55219719e-06 1.25884644e-05
      -3.35418645e-06 7.43484907e-06 2.60877478e-05 3.96258201e-06
      2.58218406e-05 1.71137053e-05 1.60506788e-05 2.03100135e-05
      -2.86387149e-06 -2.30235419e-05 2.10593043e-05 -5.49525757e-05
      -7.39595926e-05 -4.23585989e-05 -1.73226799e-04 -1.90576538e-04
      -1.66943180e-04 -2.35290427e-04 -2.43253977e-04 -2.40320296e-04
      -1.63131685e-04 -1.67620121e-04 -1.80895004e-04 -8.10665588e-05
      -9.18598525e-05 -7.79866314e-05 -4.35373295e-05 -4.68716971e-05
      -4.84209413e-05 2.20550894e-04 2.08698664e-04 1.89026483e-04
      3.94021248e-04 3.46935034e-04 3.07070470e-04 4.40724834e-04
      3.89815395e-04 3.55088705e-04 3.85848543e-04 3.54746502e-04
      3.11786280e-04 1.11770118e-04 7.45067955e-05 5.19905479e-05
      -6.80118537e-05 -1.02082966e-04 -1.11470581e-04 -1.02023347e-04
      -1.07193948e-04 -9.98657051e-05 -3.21070329e-05 -2.50616831e-05
      -2.56955700e-05 -3.95802599e-05 -3.49709044e-05 -3.88282933e-05
      -7.19701784e-05 -8.22588481e-05 -6.69684887e-05 -8.40821958e-05
      -8.88337017e-05 -4.07555708e-05 -4.06487998e-05 -4.63027791e-05
      2.55549071e-06 -1.54238842e-05 -1.17100662e-05 1.46491011e-05
      5.62678770e-06 -3.09707229e-06 2.90338739e-05 -1.03793864e-04
      -1.19847376e-04 -1.17172676e-04 -1.45551589e-04 -1.59296949e-04
      -1.61637799e-04 -6.25006141e-05 -7.12373585e-05 -8.10242491e-05
      3.16188130e-06 9.81585572e-07 -1.65287111e-05 3.48153990e-05
      2.33767532e-05 2.59350800e-05 5.00773094e-05 3.88902663e-05
      3.56653436e-05 3.41369276e-04 3.32992175e-04 3.09071678e-04
      4.31510212e-04 4.01662895e-04 3.51117342e-04 4.44573292e-04
      4.08331485e-04 3.67945322e-04 4.70837316e-04 4.31760243e-04
      3.97155905e-04 2.54714949e-04 2.08575555e-04 1.85028985e-04
      6.32434967e-06 -3.04472414e-05 -3.98348566e-05 -1.50731270e-04
      -1.59364092e-04 -1.61422053e-04 -2.16228218e-04 -2.18428322e-04
      -2.18559013e-04 -2.07868245e-04 -2.10717801e-04 -2.29493045e-04
      -2.35904503e-04 -2.17905312e-04 -2.18305999e-04 -2.41516173e-04
      -2.28507197e-04 -1.64891637e-04 -1.24605824e-04 -1.08767104e-04
      -4.82259602e-05 -7.73176089e-06 1.81201103e-05 2.06853674e-05
      2.73471724e-05 1.29693317e-05 6.60331498e-05 -7.34365676e-05
      -8.42298614e-05 -7.49972824e-05 -1.20558449e-04 -1.24917628e-04
      -1.35109731e-04 -7.02400503e-05 -7.78227259e-05 -7.66884768e-05
      1.02399363e-05 2.25799272e-06 5.19718697e-06 2.50549920e-06
      1.14965251e-05 6.20359242e-06 2.02107767e-05 2.70229248e-05
      1.78740211e-05 1.91778076e-04 1.95869929e-04 1.66670798e-04
      2.22936724e-04 1.90782681e-04 1.55149450e-04 3.37604346e-04
      3.12799792e-04 2.73311976e-04 4.64843004e-04 4.23450430e-04
      3.78557423e-04 2.74330523e-04 2.43475530e-04 2.09388701e-04
      5.15994871e-05 2.98750074e-05 4.91867604e-06 -5.76157436e-05
      -6.62144303e-05 -8.06319076e-05 -4.87552425e-05 -5.46677547e-05
      -6.90852321e-05 -3.20209874e-05 -4.59085131e-05 -7.13878617e-05
      -1.10967965e-04 -9.42650004e-05 -1.23978345e-04 -1.73908746e-04
      -1.69023871e-04 -1.81118899e-04 -1.16076939e-04 -1.15174473e-04
      -1.42562698e-04 -3.48655522e-05 -6.70687996e-07 -1.22930142e-04
      2.79837350e-05 1.75856185e-05 8.13161387e-05 -6.34035969e-05
      -5.87758404e-05 -8.81157030e-05 -1.22504120e-04 -1.25567080e-04
      -1.43992729e-04 -7.83627329e-05 -8.01492715e-05 -6.74485273e-05
      2.49261166e-06 -4.96772873e-06 1.57583509e-06 1.73638944e-06
      1.79292238e-05 3.87411819e-05 -1.40153743e-05 6.81214760e-06
      5.76894126e-06 2.86374416e-05 4.16067742e-05 3.86362917e-05
      5.15145730e-05 4.82896539e-05 3.76072312e-05 2.49485835e-04
      2.40625333e-04 2.11426202e-04 4.10853769e-04 3.68434965e-04
      3.46944958e-04 2.36552514e-04 1.98114853e-04 1.87431011e-04
      -3.02113640e-05 -4.95949935e-05 -5.12904880e-05 -1.52672859e-04
      -1.49686646e-04 -1.46878141e-04 -1.65158810e-04 -1.66403930e-04
      -1.59489253e-04 -1.91772415e-04 -1.94189997e-04 -1.98459544e-04
      -2.35970219e-04 -2.37248038e-04 -2.87172181e-04 -2.19054607e-04
      -2.35142259e-04 -2.73093261e-04 -9.46026485e-05 -1.05033469e-04
      -1.98919530e-04 -8.14185114e-05 -4.63211800e-05 -2.67081574e-04
      3.68469118e-05 2.86276736e-05 9.38020894e-05 -4.38694624e-05
      -4.32200140e-05 -5.60827320e-05 -1.26801679e-04 -1.41159704e-04
      -1.48671155e-04 -1.52343404e-04 -1.64400204e-04 -1.42564866e-04
      -1.52682464e-04 -1.49332525e-04 -1.43292171e-04 -9.39135571e-05
      -9.13566473e-05 -7.23298144e-05 -2.07469893e-05 -1.86932830e-05
      -3.32302589e-05 7.59228305e-06 2.36558499e-05 -2.58693876e-06
      -1.32435880e-05 1.25884644e-05 1.26210125e-06 2.04391064e-04
      2.04265889e-04 1.80598407e-04 2.68693169e-04 2.19214722e-04
      2.06337703e-04 6.14380842e-05 1.18276866e-05 1.38644100e-05
      -1.30527289e-04 -1.56616457e-04 -1.52129433e-04 -1.45489452e-04
      -1.54862762e-04 -1.44575504e-04 -1.19147262e-04 -1.27348103e-04
      -1.07442873e-04 -1.16594449e-04 -1.26195446e-04 -1.08363740e-04
      -1.27893625e-04 -1.27747364e-04 -1.44316975e-04 -1.12409019e-04
      -1.22171987e-04 -1.20257602e-04 -1.25927181e-05 -8.71834709e-06
      -8.55389735e-05 -6.08227747e-05 -4.42660566e-05 -2.19890615e-04
      3.73938492e-05 2.15735326e-05 1.05406798e-04 3.06103102e-05
      7.06516721e-06 2.37879522e-05 -3.62698047e-05 -6.22127263e-05
      -1.48098152e-05 -8.04142692e-05 -9.92791320e-05 -3.83442384e-05
      -1.37912284e-04 -1.38165313e-04 -1.23241945e-04 -1.39150477e-04
      -1.59473537e-04 -1.55236703e-04 -7.99385671e-05 -1.04239931e-04
      -1.17752104e-04 1.98225353e-05 8.99634301e-07 -6.17842079e-06
      2.44502917e-05 1.15820585e-05 8.73942372e-06 1.34203321e-04
      1.24943559e-04 7.92801802e-05 2.25478376e-04 1.79327355e-04
      1.26331492e-04 1.61915974e-04 1.15529081e-04 6.99880402e-05
      6.81392194e-05 4.10238317e-05 2.42881597e-05 1.68874358e-05
      1.78027931e-05 1.12449234e-05 8.77906132e-06 1.21304120e-05
      2.56213461e-05 1.17105424e-06 -2.10705593e-07 1.95680968e-05
      -1.14855914e-06 1.57149625e-05 2.31793983e-05 1.27389667e-05
      2.20014117e-05 3.42426902e-05 1.77461734e-05 3.43212923e-05
      -2.13566600e-05 -3.26061418e-05 -1.53144356e-05 -1.04022969e-04
      1.65465080e-05 3.81486534e-05 1.08988672e-04 2.72575435e-05
      3.27734670e-05 3.56060482e-05 -2.32103162e-06 5.02702505e-06
      3.59854967e-05 -1.92176344e-06 -3.43830243e-06 4.70855921e-05
      -6.13286538e-05 -3.88056360e-05 -2.49125987e-05 -1.34207570e-04
      -1.11432950e-04 -1.33049398e-04 -1.29762338e-04 -1.18682074e-04
      -1.50085412e-04 4.19361822e-06 7.11583709e-07 -5.09148231e-06
      3.92219818e-06 2.28183490e-05 6.33285845e-06 8.39802815e-05
      1.01604121e-04 5.39936445e-05 2.30554651e-04 2.21448063e-04
      1.58794559e-04 2.14779298e-04 1.77907874e-04 1.36093528e-04
      9.49394598e-05 4.71243984e-05 3.78476470e-05 3.07367409e-05
      -2.81276471e-06 5.29560884e-06 2.66121879e-05 1.50456926e-05
      2.61061487e-05 2.03530567e-06 3.78031132e-07 1.03952807e-05
      1.34923530e-05 2.05759206e-05 2.98397845e-05 5.38397944e-06
      1.37494671e-05 2.06867862e-05 -3.97830627e-06 1.73538356e-05
      -3.21853331e-05 -5.62450077e-05 -4.14036003e-05 -1.02546066e-04
      8.85028930e-06 4.42162054e-05 5.36989646e-05 2.12042942e-05
      2.45413394e-05 2.55675623e-05 7.18892034e-06 6.93590118e-06
      1.11584332e-05 -4.90059529e-06 -7.71194209e-06 1.86357556e-05
      -1.23431935e-04 -9.82070123e-05 -1.03860999e-04 -2.13174368e-04
      -2.00289142e-04 -2.34896172e-04 -1.94590015e-04 -1.91993473e-04
      -2.15164677e-04 -9.08924121e-05 -1.10446359e-04 -1.30516404e-04
      -1.12115107e-04 -8.92406460e-05 -1.06493833e-04 1.82138501e-05
      3.87911896e-05 2.06369550e-05 1.87716912e-04 1.64594952e-04
      1.35647424e-04 1.18071846e-04 7.75974622e-05 4.27388441e-05
      4.80691815e-05 3.96793484e-06 -1.39019921e-05 3.13861929e-05
      4.77542380e-06 4.01920170e-06 3.59799851e-05 8.21923913e-06
      1.90280934e-05 2.86617978e-05 3.98240081e-06 1.60561922e-05
      -5.23021299e-07 1.26429825e-07 2.60891666e-05 6.15718363e-06
      1.66960363e-05 2.86419800e-05 7.47181002e-06 7.32823810e-06
      -4.79256596e-06 -4.94457490e-05 -2.80151835e-05 -4.26087827e-05
      2.31172653e-05 2.84157104e-05 2.01167531e-05 3.39418439e-05
      3.05945869e-05 1.43805173e-05 2.28854824e-05 1.47940909e-05
      1.63092118e-05 -9.73763963e-06 -3.45319968e-05 -9.09228311e-06
      -1.20520228e-04 -1.31939058e-04 -1.42118282e-04 -1.94524298e-04
      -1.95911576e-04 -2.42355090e-04 -2.02756433e-04 -2.28319899e-04
      -2.55345658e-04 -1.94666456e-04 -2.27965778e-04 -2.53566046e-04
      -2.53061415e-04 -2.77746323e-04 -2.67869822e-04 -9.75314688e-05
      -1.31469220e-04 -1.29050211e-04 1.35975410e-04 7.45340221e-05
      5.30454199e-05 1.01496727e-04 5.68963733e-05 2.70661967e-05
      2.92296500e-05 -5.21397715e-06 -2.42379756e-05 2.92257155e-05
      1.89568655e-05 5.98469751e-06 8.23212667e-06 3.09974871e-06
      5.42487487e-06 8.75373007e-06 2.88039519e-05 3.13677920e-05
      -1.40024868e-05 6.55503345e-06 4.56361850e-05 8.50212837e-06
      1.43934049e-05 5.50393670e-05 -6.80947142e-06 7.71786290e-07
      1.34780466e-05 -7.06107267e-06 -1.02731055e-05 5.01784484e-07
      2.86419800e-05 1.02886697e-05 5.45192734e-06 3.68939254e-05
      2.76425053e-05 1.38994915e-06 2.09950067e-05 1.18788103e-05
      1.63658315e-05 -9.05313645e-05 -9.51292459e-05 -7.73986394e-05
      -1.88490871e-04 -2.05692952e-04 -2.12790823e-04 -1.85053985e-04
      -1.96349065e-04 -2.00618611e-04 -1.89449958e-04 -2.15263615e-04
      -2.18238347e-04 -1.77485621e-04 -2.13607753e-04 -2.12455096e-04
      -1.85336874e-04 -2.25694428e-04 -2.27634606e-04 -1.49985208e-05
      -6.75822375e-05 -6.29645292e-05 1.87887010e-04 1.08555883e-04
      9.11918396e-05 6.55824551e-05 1.04234314e-05 -8.34629009e-06
      -8.18413391e-05 -9.19823433e-05 -1.20644145e-04 -6.23796950e-05
      -4.55147565e-05 -6.37655539e-05 -6.64891695e-06 8.16499323e-06
      1.35530672e-05 -3.02179742e-05 2.01895400e-05 1.99107453e-05
      -2.62198500e-05 1.02338765e-06 2.89005129e-05 8.75373007e-06
      1.45171589e-05 3.81942446e-05 -9.40601694e-06 -9.22289303e-07
      4.87478587e-07 4.91016835e-05 7.66273502e-07 -8.59601187e-06
      1.33432677e-05 7.72892417e-06 2.41148773e-05 2.53850817e-06
      1.85079080e-05 1.49021207e-05 -6.79904551e-05 -5.40790170e-05
      -4.84195261e-05 -1.95568922e-04 -1.78686998e-04 -1.80627161e-04
      -1.11599016e-04 -8.77797720e-05 -9.56324511e-05 -5.99463820e-05
      -3.07431619e-05 -1.31432362e-05 -2.53761646e-05 -1.03120710e-05
      -1.23645186e-05 -7.89999194e-06 -2.57529373e-05 -1.78961654e-05
      2.44954426e-05 -5.69720123e-06 -1.04487117e-05 1.92778665e-04
      1.44700374e-04 1.32619214e-04 3.80215963e-04 3.12322052e-04
      2.75686500e-04 2.22433213e-04 1.76261106e-04 1.55582515e-04
      -3.87634827e-05 -5.71380297e-05 -6.61106533e-05 -1.07113410e-04
      -1.05020066e-04 -1.20207915e-04 -7.28385276e-05 -7.48656457e-05
      -7.25773207e-05 -3.44464643e-05 5.54862845e-06 1.61854587e-05
      -1.10434730e-05 2.35294210e-05 3.21111256e-05 -5.51324547e-06
      1.74945726e-05 7.69479993e-06 4.62775733e-06 2.21237478e-05
      -2.62668618e-05 8.22661423e-06 -8.61441276e-06 -5.19622736e-05
      2.18284149e-05 1.01410023e-05 3.49578550e-05 -2.42144142e-05
      -2.99778440e-05 -3.09014126e-06 -1.35126276e-04 -1.42689125e-04
      -1.41111872e-04 -2.20064365e-04 -2.09106423e-04 -2.19493522e-04
      -1.51025190e-04 -1.49331114e-04 -1.54966692e-04 -1.41239725e-04
      -1.33135443e-04 -1.18071352e-04 -1.19660072e-04 -1.39440293e-04
      -1.29005377e-04 -9.47249791e-05 -1.10379231e-04 -1.01619982e-04
      -8.56087863e-05 -8.15881649e-05 -9.28961235e-05 1.06836334e-04
      1.05710271e-04 7.98837355e-05 3.51645227e-04 3.22464475e-04
      2.74391699e-04 2.11352934e-04 1.70583226e-04 1.37688679e-04
      -5.73607176e-05 -8.76812119e-05 -1.15819988e-04 -1.46121922e-04
      -1.73864260e-04 -1.81593190e-04 -1.22110374e-04 -1.55378846e-04
      -1.46282473e-04 -3.52251809e-05 -4.44835314e-05 -4.70759842e-05
      -2.51601307e-07 9.63779985e-06 5.49893957e-06 6.93590118e-06
      1.46648254e-05 1.23239752e-05 7.18750243e-06 9.00533087e-06
      -6.46824128e-06 2.07194917e-05 1.42853760e-05 -5.55146471e-06
      2.57097163e-05 -6.80947142e-06 2.63850106e-05 -1.21064986e-05
      -2.71296958e-05 2.10078633e-06 -7.49884930e-05 -9.05148918e-05
      -8.38943743e-05 -9.19559461e-05 -9.31114409e-05 -1.27474021e-04
      -8.48778946e-05 -1.03234037e-04 -1.07345193e-04 -9.93978902e-05
      -1.20350582e-04 -1.22534460e-04 -1.03542261e-04 -1.46201026e-04
      -1.41345081e-04 -1.14187882e-04 -1.57767528e-04 -1.46539591e-04
      -1.52384964e-04 -1.70758096e-04 -1.63550780e-04 -2.75862385e-05
      -2.75807251e-05 -7.39606912e-05 1.95742832e-04 1.61303295e-04
      1.20162324e-04 1.11894333e-04 6.45879845e-05 4.32599372e-05
      -1.08592103e-04 -1.38280127e-04 -1.67572973e-04 -1.68579223e-04
      -1.98015638e-04 -2.28606135e-04 -1.34635950e-04 -1.80138784e-04
      -1.93903979e-04 -4.43795980e-05 -7.26619473e-05 -8.01351780e-05
      9.25693257e-06 -4.62917524e-06 4.09326640e-06 2.53274302e-05
      4.50542211e-06 2.32580005e-05 6.55503345e-06 -2.18029595e-06
      9.24120832e-06 2.98287578e-05 1.69674568e-05 2.96851867e-05
      -9.57108659e-06 -2.80600834e-05 6.81149277e-06 -2.28937897e-05
      -3.26658555e-05 -8.52953326e-06 -1.78488754e-05 -1.77499423e-05
      -3.67148787e-05 -2.35028565e-05 -1.51046625e-05 -5.89439805e-05
      -1.04083538e-05 -8.65214497e-06 -3.74080628e-05 6.83461758e-06
      5.99427949e-06 -2.22584349e-05 1.88039630e-05 5.53980999e-06
      -2.45942847e-05 2.16881908e-05 7.22765162e-06 -7.94679545e-06
      2.95444515e-05 -3.85597104e-06 5.72162662e-06 1.62346201e-04
      1.28408457e-04 9.72177513e-05 2.73493933e-04 2.35825384e-04
      1.95187618e-04 2.00697861e-04 1.63552337e-04 1.46957391e-04
      4.37758827e-05 2.30946098e-05 -5.94663788e-06 1.01049989e-06
      -6.05466721e-06 -3.99725977e-05 -6.70553663e-06 -1.42683939e-05
      -3.80467391e-05 1.51625154e-05 1.42853760e-05 -8.10569691e-06
      2.94350029e-05 2.19830126e-05 2.76241044e-05 2.90541357e-05
      2.08289403e-05 3.62485698e-05 2.61020541e-05 1.77475922e-05
